<?xml version="1.0"?>
<MethodSetup Method="BDT::BDT">
  <GeneralInfo>
    <Info name="TMVA Release" value="4.2.1 [262657]"/>
    <Info name="ROOT Release" value="6.24/02 [399362]"/>
    <Info name="Creator" value="rmashu"/>
    <Info name="Date" value="Sun Aug 13 16:15:25 2023"/>
    <Info name="Host" value="Linux 178dce5255d1 5.8.0-1036-azure #38~20.04.1-Ubuntu SMP Thu Jun 17 14:14:18 UTC 2021 x86_64 x86_64 x86_64 GNU/Linux"/>
    <Info name="Dir" value="/data/docs/rmashu/Delphes/Delpy/Input/1100_1300/new/GNN1/BDT/BDT_train"/>
    <Info name="Training events" value="600000"/>
    <Info name="TrainingTime" value="2.33269418e+02"/>
    <Info name="AnalysisType" value="Classification"/>
  </GeneralInfo>
  <Options>
    <Option name="V" modified="Yes">True</Option>
    <Option name="VerbosityLevel" modified="No">Verbose</Option>
    <Option name="VarTransform" modified="No">None</Option>
    <Option name="H" modified="Yes">False</Option>
    <Option name="CreateMVAPdfs" modified="No">False</Option>
    <Option name="IgnoreNegWeightsInTraining" modified="No">False</Option>
    <Option name="NTrees" modified="Yes">1000</Option>
    <Option name="MaxDepth" modified="Yes">4</Option>
    <Option name="MinNodeSize" modified="Yes">5%</Option>
    <Option name="nCuts" modified="Yes">20</Option>
    <Option name="BoostType" modified="Yes">AdaBoost</Option>
    <Option name="AdaBoostR2Loss" modified="No">quadratic</Option>
    <Option name="UseBaggedBoost" modified="Yes">True</Option>
    <Option name="Shrinkage" modified="No">1.000000e+00</Option>
    <Option name="AdaBoostBeta" modified="Yes">1.000000e-01</Option>
    <Option name="UseRandomisedTrees" modified="No">False</Option>
    <Option name="UseNvars" modified="No">3</Option>
    <Option name="UsePoissonNvars" modified="No">True</Option>
    <Option name="BaggedSampleFraction" modified="Yes">5.000000e-01</Option>
    <Option name="UseYesNoLeaf" modified="No">True</Option>
    <Option name="NegWeightTreatment" modified="No">inverseboostnegweights</Option>
    <Option name="Css" modified="No">1.000000e+00</Option>
    <Option name="Cts_sb" modified="No">1.000000e+00</Option>
    <Option name="Ctb_ss" modified="No">1.000000e+00</Option>
    <Option name="Cbb" modified="No">1.000000e+00</Option>
    <Option name="NodePurityLimit" modified="No">5.000000e-01</Option>
    <Option name="SeparationType" modified="Yes">giniindex</Option>
    <Option name="RegressionLossFunctionBDTG" modified="No">huber</Option>
    <Option name="HuberQuantile" modified="No">7.000000e-01</Option>
    <Option name="DoBoostMonitor" modified="No">False</Option>
    <Option name="UseFisherCuts" modified="No">False</Option>
    <Option name="MinLinCorrForFisher" modified="No">8.000000e-01</Option>
    <Option name="UseExclusiveVars" modified="No">False</Option>
    <Option name="DoPreselection" modified="No">False</Option>
    <Option name="SigToBkgFraction" modified="No">1.000000e+00</Option>
    <Option name="PruneMethod" modified="No">nopruning</Option>
    <Option name="PruneStrength" modified="No">0.000000e+00</Option>
    <Option name="PruningValFraction" modified="No">5.000000e-01</Option>
    <Option name="SkipNormalization" modified="No">False</Option>
    <Option name="nEventsMin" modified="No">0</Option>
    <Option name="UseBaggedGrad" modified="No">False</Option>
    <Option name="GradBaggingFraction" modified="No">5.000000e-01</Option>
    <Option name="UseNTrainEvents" modified="No">0</Option>
    <Option name="NNodesMax" modified="No">0</Option>
  </Options>
  <Variables NVar="6">
    <Variable VarIndex="0" Expression="mass" Label="mass" Title="mass" Unit="" Internal="mass" Type="F" Min="-2.15791861e-05" Max="6.64331604e+02"/>
    <Variable VarIndex="1" Expression="tau21" Label="tau21" Title="tau21" Unit="" Internal="tau21" Type="F" Min="0.00000000e+00" Max="9.81386006e-01"/>
    <Variable VarIndex="2" Expression="tau32" Label="tau32" Title="tau32" Unit="" Internal="tau32" Type="F" Min="0.00000000e+00" Max="1.21140015e+00"/>
    <Variable VarIndex="3" Expression="tau43" Label="tau43" Title="tau43" Unit="" Internal="tau43" Type="F" Min="0.00000000e+00" Max="1.23497760e+00"/>
    <Variable VarIndex="4" Expression="btag" Label="btag" Title="btag" Unit="" Internal="btag" Type="F" Min="-1.00000000e+00" Max="1.00000000e+00"/>
    <Variable VarIndex="5" Expression="score" Label="score" Title="score" Unit="" Internal="score" Type="F" Min="1.87568063e-29" Max="1.00000000e+00"/>
  </Variables>
  <Spectators NSpec="0"/>
  <Classes NClass="2">
    <Class Name="Signal" Index="0"/>
    <Class Name="Background" Index="1"/>
  </Classes>
  <Transformations NTransformations="0"/>
  <MVAPdfs/>
  <Weights NTrees="1000" AnalysisType="0">
    <BinaryTree type="DecisionTree" boostWeight="2.8878474775331670e-01" itree="0">
      <Node pos="s" depth="0" NCoef="0" IVar="5" Cut="4.7619047760963440e-01" cType="0" res="-9.9000000000000000e+01" rms="0.0000000000000000e+00" purity="4.9912348389625549e-01" nType="0">
        <Node pos="l" depth="1" NCoef="0" IVar="-1" Cut="8.2540702819824219e-01" cType="0" res="-9.9000000000000000e+01" rms="0.0000000000000000e+00" purity="9.3831765651702881e-01" nType="1"/>
        <Node pos="r" depth="1" NCoef="0" IVar="-1" Cut="1.3605234026908875e-01" cType="0" res="-9.9000000000000000e+01" rms="0.0000000000000000e+00" purity="4.3498966842889786e-02" nType="-1"/>
      </Node>
    </BinaryTree>
    <BinaryTree type="DecisionTree" boostWeight="2.7265738056805433e-01" itree="1">
      <Node pos="s" depth="0" NCoef="0" IVar="5" Cut="4.2857143282890320e-01" cType="0" res="-9.9000000000000000e+01" rms="0.0000000000000000e+00" purity="4.9850425124168396e-01" nType="0">
        <Node pos="l" depth="1" NCoef="0" IVar="-1" Cut="8.3673804998397827e-01" cType="0" res="-9.9000000000000000e+01" rms="0.0000000000000000e+00" purity="9.2307788133621216e-01" nType="1"/>
        <Node pos="r" depth="1" NCoef="0" IVar="-1" Cut="1.2243250757455826e-01" cType="0" res="-9.9000000000000000e+01" rms="0.0000000000000000e+00" purity="4.4863641262054443e-02" nType="-1"/>
      </Node>
    </BinaryTree>
    <BinaryTree type="DecisionTree" boostWeight="2.5909348885806999e-01" itree="2">
      <Node pos="s" depth="0" NCoef="0" IVar="5" Cut="5.7142859697341919e-01" cType="0" res="-9.9000000000000000e+01" rms="0.0000000000000000e+00" purity="4.9828121066093445e-01" nType="0">
        <Node pos="l" depth="1" NCoef="0" IVar="-1" Cut="8.7755405902862549e-01" cType="0" res="-9.9000000000000000e+01" rms="0.0000000000000000e+00" purity="9.3009299039840698e-01" nType="1"/>
        <Node pos="r" depth="1" NCoef="0" IVar="-1" Cut="1.3604451715946198e-01" cType="0" res="-9.9000000000000000e+01" rms="0.0000000000000000e+00" purity="6.9542497396469116e-02" nType="-1"/>
      </Node>
    </BinaryTree>
    <BinaryTree type="DecisionTree" boostWeight="2.4690108485729209e-01" itree="3">
      <Node pos="s" depth="0" NCoef="0" IVar="5" Cut="3.8095238804817200e-01" cType="0" res="-9.9000000000000000e+01" rms="0.0000000000000000e+00" purity="4.9912449717521667e-01" nType="0">
        <Node pos="l" depth="1" NCoef="0" IVar="-1" Cut="8.5261344909667969e-01" cType="0" res="-9.9000000000000000e+01" rms="0.0000000000000000e+00" purity="8.9834195375442505e-01" nType="1"/>
        <Node pos="r" depth="1" NCoef="0" IVar="-1" Cut="9.0692557394504547e-02" cType="0" res="-9.9000000000000000e+01" rms="0.0000000000000000e+00" purity="5.1605448126792908e-02" nType="-1"/>
      </Node>
    </BinaryTree>
    <BinaryTree type="DecisionTree" boostWeight="2.3448475612146327e-01" itree="4">
      <Node pos="s" depth="0" NCoef="0" IVar="5" Cut="6.6666668653488159e-01" cType="0" res="-9.9000000000000000e+01" rms="0.0000000000000000e+00" purity="4.9622821807861328e-01" nType="0">
        <Node pos="l" depth="1" NCoef="0" IVar="-1" Cut="8.8890051841735840e-01" cType="0" res="-9.9000000000000000e+01" rms="0.0000000000000000e+00" purity="9.2591762542724609e-01" nType="1"/>
        <Node pos="r" depth="1" NCoef="0" IVar="-1" Cut="1.2698087096214294e-01" cType="0" res="-9.9000000000000000e+01" rms="0.0000000000000000e+00" purity="9.9832214415073395e-02" nType="-1"/>
      </Node>
    </BinaryTree>
    <BinaryTree type="DecisionTree" boostWeight="2.2378785648289448e-01" itree="5">
      <Node pos="s" depth="0" NCoef="0" IVar="5" Cut="2.3809523880481720e-01" cType="0" res="-9.9000000000000000e+01" rms="0.0000000000000000e+00" purity="4.9862328171730042e-01" nType="0">
        <Node pos="l" depth="1" NCoef="0" IVar="5" Cut="8.5487979650497437e-01" cType="0" res="-9.9000000000000000e+01" rms="0.0000000000000000e+00" purity="8.5917043685913086e-01" nType="0">
          <Node pos="l" depth="2" NCoef="0" IVar="-1" Cut="9.5853728055953979e-01" cType="0" res="-9.9000000000000000e+01" rms="0.0000000000000000e+00" purity="9.5632392168045044e-01" nType="1"/>
          <Node pos="r" depth="2" NCoef="0" IVar="5" Cut="6.1991620063781738e-01" cType="0" res="-9.9000000000000000e+01" rms="0.0000000000000000e+00" purity="5.4185253381729126e-01" nType="0">
            <Node pos="l" depth="3" NCoef="0" IVar="-1" Cut="0.0000000000000000e+00" cType="1" res="-9.9000000000000000e+01" rms="0.0000000000000000e+00" purity="5.9902048110961914e-01" nType="1"/>
            <Node pos="r" depth="3" NCoef="0" IVar="-1" Cut="0.0000000000000000e+00" cType="1" res="-9.9000000000000000e+01" rms="0.0000000000000000e+00" purity="4.9278661608695984e-01" nType="-1"/>
          </Node>
        </Node>
        <Node pos="r" depth="1" NCoef="0" IVar="-1" Cut="5.6685905903577805e-02" cType="0" res="-9.9000000000000000e+01" rms="0.0000000000000000e+00" purity="4.2494688183069229e-02" nType="-1"/>
      </Node>
    </BinaryTree>
    <BinaryTree type="DecisionTree" boostWeight="2.1441424314775315e-01" itree="6">
      <Node pos="s" depth="0" NCoef="0" IVar="5" Cut="2.3809523880481720e-01" cType="0" res="-9.9000000000000000e+01" rms="0.0000000000000000e+00" purity="4.9601504206657410e-01" nType="0">
        <Node pos="l" depth="1" NCoef="0" IVar="-1" Cut="8.9115983247756958e-01" cType="0" res="-9.9000000000000000e+01" rms="0.0000000000000000e+00" purity="8.4880542755126953e-01" nType="1"/>
        <Node pos="r" depth="1" NCoef="0" IVar="-1" Cut="5.6685905903577805e-02" cType="0" res="-9.9000000000000000e+01" rms="0.0000000000000000e+00" purity="4.5771293342113495e-02" nType="-1"/>
      </Node>
    </BinaryTree>
    <BinaryTree type="DecisionTree" boostWeight="2.0586191121015701e-01" itree="7">
      <Node pos="s" depth="0" NCoef="0" IVar="5" Cut="2.3809523880481720e-01" cType="0" res="-9.9000000000000000e+01" rms="0.0000000000000000e+00" purity="4.9260348081588745e-01" nType="0">
        <Node pos="l" depth="1" NCoef="0" IVar="5" Cut="8.9116173982620239e-01" cType="0" res="-9.9000000000000000e+01" rms="0.0000000000000000e+00" purity="8.3388048410415649e-01" nType="0">
          <Node pos="l" depth="2" NCoef="0" IVar="-1" Cut="9.7408705949783325e-01" cType="0" res="-9.9000000000000000e+01" rms="0.0000000000000000e+00" purity="9.5336371660232544e-01" nType="1"/>
          <Node pos="r" depth="2" NCoef="0" IVar="5" Cut="7.0457637310028076e-01" cType="0" res="-9.9000000000000000e+01" rms="0.0000000000000000e+00" purity="5.3274172544479370e-01" nType="0">
            <Node pos="l" depth="3" NCoef="0" IVar="-1" Cut="0.0000000000000000e+00" cType="1" res="-9.9000000000000000e+01" rms="0.0000000000000000e+00" purity="6.0583007335662842e-01" nType="1"/>
            <Node pos="r" depth="3" NCoef="0" IVar="-1" Cut="0.0000000000000000e+00" cType="1" res="-9.9000000000000000e+01" rms="0.0000000000000000e+00" purity="4.8422929644584656e-01" nType="-1"/>
          </Node>
        </Node>
        <Node pos="r" depth="1" NCoef="0" IVar="-1" Cut="4.5342035591602325e-02" cType="0" res="-9.9000000000000000e+01" rms="0.0000000000000000e+00" purity="5.1762264221906662e-02" nType="-1"/>
      </Node>
    </BinaryTree>
    <BinaryTree type="DecisionTree" boostWeight="1.9610224894786987e-01" itree="8">
      <Node pos="s" depth="0" NCoef="0" IVar="5" Cut="1.9047619402408600e-01" cType="0" res="-9.9000000000000000e+01" rms="0.0000000000000000e+00" purity="4.9486970901489258e-01" nType="0">
        <Node pos="l" depth="1" NCoef="0" IVar="-1" Cut="9.2290508747100830e-01" cType="0" res="-9.9000000000000000e+01" rms="0.0000000000000000e+00" purity="8.2084769010543823e-01" nType="1"/>
        <Node pos="r" depth="1" NCoef="0" IVar="-1" Cut="3.6256819963455200e-02" cType="0" res="-9.9000000000000000e+01" rms="0.0000000000000000e+00" purity="4.6634513884782791e-02" nType="-1"/>
      </Node>
    </BinaryTree>
    <BinaryTree type="DecisionTree" boostWeight="1.9097767674609314e-01" itree="9">
      <Node pos="s" depth="0" NCoef="0" IVar="5" Cut="8.0952382087707520e-01" cType="0" res="-9.9000000000000000e+01" rms="0.0000000000000000e+00" purity="4.9050313234329224e-01" nType="0">
        <Node pos="l" depth="1" NCoef="0" IVar="-1" Cut="9.4557893276214600e-01" cType="0" res="-9.9000000000000000e+01" rms="0.0000000000000000e+00" purity="9.1677933931350708e-01" nType="1"/>
        <Node pos="r" depth="1" NCoef="0" IVar="-1" Cut="7.7094875276088715e-02" cType="0" res="-9.9000000000000000e+01" rms="0.0000000000000000e+00" purity="1.6406756639480591e-01" nType="-1"/>
      </Node>
    </BinaryTree>
    <BinaryTree type="DecisionTree" boostWeight="1.8129391139392939e-01" itree="10">
      <Node pos="s" depth="0" NCoef="0" IVar="5" Cut="1.4285714924335480e-01" cType="0" res="-9.9000000000000000e+01" rms="0.0000000000000000e+00" purity="4.9415341019630432e-01" nType="0">
        <Node pos="l" depth="1" NCoef="0" IVar="5" Cut="9.1836833953857422e-01" cType="0" res="-9.9000000000000000e+01" rms="0.0000000000000000e+00" purity="7.9527789354324341e-01" nType="0">
          <Node pos="l" depth="2" NCoef="0" IVar="-1" Cut="9.7667723894119263e-01" cType="0" res="-9.9000000000000000e+01" rms="0.0000000000000000e+00" purity="9.5109534263610840e-01" nType="1"/>
          <Node pos="r" depth="2" NCoef="0" IVar="5" Cut="7.7063959836959839e-01" cType="0" res="-9.9000000000000000e+01" rms="0.0000000000000000e+00" purity="5.3390556573867798e-01" nType="0">
            <Node pos="l" depth="3" NCoef="0" IVar="-1" Cut="0.0000000000000000e+00" cType="1" res="-9.9000000000000000e+01" rms="0.0000000000000000e+00" purity="6.1048668622970581e-01" nType="1"/>
            <Node pos="r" depth="3" NCoef="0" IVar="-1" Cut="0.0000000000000000e+00" cType="1" res="-9.9000000000000000e+01" rms="0.0000000000000000e+00" purity="4.9948343634605408e-01" nType="-1"/>
          </Node>
        </Node>
        <Node pos="r" depth="1" NCoef="0" IVar="-1" Cut="2.7210116386413574e-02" cType="0" res="-9.9000000000000000e+01" rms="0.0000000000000000e+00" purity="4.4446155428886414e-02" nType="-1"/>
      </Node>
    </BinaryTree>
    <BinaryTree type="DecisionTree" boostWeight="1.7776341314559055e-01" itree="11">
      <Node pos="s" depth="0" NCoef="0" IVar="5" Cut="1.4285714924335480e-01" cType="0" res="-9.9000000000000000e+01" rms="0.0000000000000000e+00" purity="4.9720972776412964e-01" nType="0">
        <Node pos="l" depth="1" NCoef="0" IVar="-1" Cut="9.1836839914321899e-01" cType="0" res="-9.9000000000000000e+01" rms="0.0000000000000000e+00" purity="7.9242563247680664e-01" nType="1"/>
        <Node pos="r" depth="1" NCoef="0" IVar="-1" Cut="2.7210116386413574e-02" cType="0" res="-9.9000000000000000e+01" rms="0.0000000000000000e+00" purity="4.8972323536872864e-02" nType="-1"/>
      </Node>
    </BinaryTree>
    <BinaryTree type="DecisionTree" boostWeight="1.6943768274581289e-01" itree="12">
      <Node pos="s" depth="0" NCoef="0" IVar="5" Cut="1.4285714924335480e-01" cType="0" res="-9.9000000000000000e+01" rms="0.0000000000000000e+00" purity="4.9243378639221191e-01" nType="0">
        <Node pos="l" depth="1" NCoef="0" IVar="5" Cut="9.5918381214141846e-01" cType="0" res="-9.9000000000000000e+01" rms="0.0000000000000000e+00" purity="7.7541893720626831e-01" nType="0">
          <Node pos="l" depth="2" NCoef="0" IVar="-1" Cut="9.8639464378356934e-01" cType="0" res="-9.9000000000000000e+01" rms="0.0000000000000000e+00" purity="9.6418672800064087e-01" nType="1"/>
          <Node pos="r" depth="2" NCoef="0" IVar="5" Cut="8.8143837451934814e-01" cType="0" res="-9.9000000000000000e+01" rms="0.0000000000000000e+00" purity="5.5526143312454224e-01" nType="0">
            <Node pos="l" depth="3" NCoef="0" IVar="-1" Cut="0.0000000000000000e+00" cType="1" res="-9.9000000000000000e+01" rms="0.0000000000000000e+00" purity="7.1476030349731445e-01" nType="1"/>
            <Node pos="r" depth="3" NCoef="0" IVar="0" Cut="1.8676258850097656e+02" cType="0" res="-9.9000000000000000e+01" rms="0.0000000000000000e+00" purity="5.0595057010650635e-01" nType="0">
              <Node pos="l" depth="4" NCoef="0" IVar="-1" Cut="0.0000000000000000e+00" cType="1" res="-9.9000000000000000e+01" rms="0.0000000000000000e+00" purity="5.2169394493103027e-01" nType="1"/>
              <Node pos="r" depth="4" NCoef="0" IVar="-1" Cut="0.0000000000000000e+00" cType="1" res="-9.9000000000000000e+01" rms="0.0000000000000000e+00" purity="4.8763808608055115e-01" nType="-1"/>
            </Node>
          </Node>
        </Node>
        <Node pos="r" depth="1" NCoef="0" IVar="-1" Cut="3.4012421965599060e-02" cType="0" res="-9.9000000000000000e+01" rms="0.0000000000000000e+00" purity="5.3939446806907654e-02" nType="-1"/>
      </Node>
    </BinaryTree>
    <BinaryTree type="DecisionTree" boostWeight="1.6448511624113671e-01" itree="13">
      <Node pos="s" depth="0" NCoef="0" IVar="5" Cut="9.5238097012042999e-02" cType="0" res="-9.9000000000000000e+01" rms="0.0000000000000000e+00" purity="4.9199673533439636e-01" nType="0">
        <Node pos="l" depth="1" NCoef="0" IVar="5" Cut="9.1383284330368042e-01" cType="0" res="-9.9000000000000000e+01" rms="0.0000000000000000e+00" purity="7.5748252868652344e-01" nType="0">
          <Node pos="l" depth="2" NCoef="0" IVar="-1" Cut="9.7538292407989502e-01" cType="0" res="-9.9000000000000000e+01" rms="0.0000000000000000e+00" purity="9.3153268098831177e-01" nType="1"/>
          <Node pos="r" depth="2" NCoef="0" IVar="5" Cut="7.5789403915405273e-01" cType="0" res="-9.9000000000000000e+01" rms="0.0000000000000000e+00" purity="5.0403153896331787e-01" nType="0">
            <Node pos="l" depth="3" NCoef="0" IVar="-1" Cut="0.0000000000000000e+00" cType="1" res="-9.9000000000000000e+01" rms="0.0000000000000000e+00" purity="5.5301225185394287e-01" nType="1"/>
            <Node pos="r" depth="3" NCoef="0" IVar="-1" Cut="3.4766635298728943e-01" cType="0" res="-9.9000000000000000e+01" rms="0.0000000000000000e+00" purity="4.8376524448394775e-01" nType="-1"/>
          </Node>
        </Node>
        <Node pos="r" depth="1" NCoef="0" IVar="-1" Cut="1.8140027299523354e-02" cType="0" res="-9.9000000000000000e+01" rms="0.0000000000000000e+00" purity="4.0427055209875107e-02" nType="-1"/>
      </Node>
    </BinaryTree>
    <BinaryTree type="DecisionTree" boostWeight="1.5969055521296127e-01" itree="14">
      <Node pos="s" depth="0" NCoef="0" IVar="5" Cut="9.5238097012042999e-02" cType="0" res="-9.9000000000000000e+01" rms="0.0000000000000000e+00" purity="4.9100291728973389e-01" nType="0">
        <Node pos="l" depth="1" NCoef="0" IVar="5" Cut="9.5691645145416260e-01" cType="0" res="-9.9000000000000000e+01" rms="0.0000000000000000e+00" purity="7.5222486257553101e-01" nType="0">
          <Node pos="l" depth="2" NCoef="0" IVar="-1" Cut="9.8358875513076782e-01" cType="0" res="-9.9000000000000000e+01" rms="0.0000000000000000e+00" purity="9.5564073324203491e-01" nType="1"/>
          <Node pos="r" depth="2" NCoef="0" IVar="5" Cut="8.7484109401702881e-01" cType="0" res="-9.9000000000000000e+01" rms="0.0000000000000000e+00" purity="5.4111993312835693e-01" nType="0">
            <Node pos="l" depth="3" NCoef="0" IVar="-1" Cut="0.0000000000000000e+00" cType="1" res="-9.9000000000000000e+01" rms="0.0000000000000000e+00" purity="6.6393005847930908e-01" nType="1"/>
            <Node pos="r" depth="3" NCoef="0" IVar="5" Cut="3.5510945320129395e-01" cType="0" res="-9.9000000000000000e+01" rms="0.0000000000000000e+00" purity="5.0604361295700073e-01" nType="0">
              <Node pos="l" depth="4" NCoef="0" IVar="-1" Cut="0.0000000000000000e+00" cType="1" res="-9.9000000000000000e+01" rms="0.0000000000000000e+00" purity="5.1904803514480591e-01" nType="1"/>
              <Node pos="r" depth="4" NCoef="0" IVar="-1" Cut="0.0000000000000000e+00" cType="1" res="-9.9000000000000000e+01" rms="0.0000000000000000e+00" purity="4.7956901788711548e-01" nType="-1"/>
            </Node>
          </Node>
        </Node>
        <Node pos="r" depth="1" NCoef="0" IVar="-1" Cut="1.8139138817787170e-02" cType="0" res="-9.9000000000000000e+01" rms="0.0000000000000000e+00" purity="4.0374349802732468e-02" nType="-1"/>
      </Node>
    </BinaryTree>
    <BinaryTree type="DecisionTree" boostWeight="1.5565888221604954e-01" itree="15">
      <Node pos="s" depth="0" NCoef="0" IVar="5" Cut="9.5238097012042999e-02" cType="0" res="-9.9000000000000000e+01" rms="0.0000000000000000e+00" purity="4.8990043997764587e-01" nType="0">
        <Node pos="l" depth="1" NCoef="0" IVar="5" Cut="9.5691645145416260e-01" cType="0" res="-9.9000000000000000e+01" rms="0.0000000000000000e+00" purity="7.4342042207717896e-01" nType="0">
          <Node pos="l" depth="2" NCoef="0" IVar="-1" Cut="9.8359066247940063e-01" cType="0" res="-9.9000000000000000e+01" rms="0.0000000000000000e+00" purity="9.4975411891937256e-01" nType="1"/>
          <Node pos="r" depth="2" NCoef="0" IVar="5" Cut="8.7485152482986450e-01" cType="0" res="-9.9000000000000000e+01" rms="0.0000000000000000e+00" purity="5.3398597240447998e-01" nType="0">
            <Node pos="l" depth="3" NCoef="0" IVar="-1" Cut="0.0000000000000000e+00" cType="1" res="-9.9000000000000000e+01" rms="0.0000000000000000e+00" purity="6.5553343296051025e-01" nType="1"/>
            <Node pos="r" depth="3" NCoef="0" IVar="5" Cut="6.5210205316543579e-01" cType="1" res="-9.9000000000000000e+01" rms="0.0000000000000000e+00" purity="4.9996748566627502e-01" nType="0">
              <Node pos="l" depth="4" NCoef="0" IVar="-1" Cut="0.0000000000000000e+00" cType="1" res="-9.9000000000000000e+01" rms="0.0000000000000000e+00" purity="5.1718664169311523e-01" nType="1"/>
              <Node pos="r" depth="4" NCoef="0" IVar="-1" Cut="0.0000000000000000e+00" cType="1" res="-9.9000000000000000e+01" rms="0.0000000000000000e+00" purity="4.6871882677078247e-01" nType="-1"/>
            </Node>
          </Node>
        </Node>
        <Node pos="r" depth="1" NCoef="0" IVar="-1" Cut="1.8137745559215546e-02" cType="0" res="-9.9000000000000000e+01" rms="0.0000000000000000e+00" purity="4.4410690665245056e-02" nType="-1"/>
      </Node>
    </BinaryTree>
    <BinaryTree type="DecisionTree" boostWeight="1.4846347696775017e-01" itree="16">
      <Node pos="s" depth="0" NCoef="0" IVar="5" Cut="9.5238097012042999e-02" cType="0" res="-9.9000000000000000e+01" rms="0.0000000000000000e+00" purity="4.8716032505035400e-01" nType="0">
        <Node pos="l" depth="1" NCoef="0" IVar="5" Cut="9.5691633224487305e-01" cType="0" res="-9.9000000000000000e+01" rms="0.0000000000000000e+00" purity="7.3100030422210693e-01" nType="0">
          <Node pos="l" depth="2" NCoef="0" IVar="-1" Cut="9.8974215984344482e-01" cType="0" res="-9.9000000000000000e+01" rms="0.0000000000000000e+00" purity="9.4626438617706299e-01" nType="1"/>
          <Node pos="r" depth="2" NCoef="0" IVar="5" Cut="8.7484842538833618e-01" cType="0" res="-9.9000000000000000e+01" rms="0.0000000000000000e+00" purity="5.2215558290481567e-01" nType="0">
            <Node pos="l" depth="3" NCoef="0" IVar="-1" Cut="0.0000000000000000e+00" cType="1" res="-9.9000000000000000e+01" rms="0.0000000000000000e+00" purity="6.3147217035293579e-01" nType="1"/>
            <Node pos="r" depth="3" NCoef="0" IVar="0" Cut="1.9054396057128906e+02" cType="1" res="-9.9000000000000000e+01" rms="0.0000000000000000e+00" purity="4.9182233214378357e-01" nType="0">
              <Node pos="l" depth="4" NCoef="0" IVar="-1" Cut="0.0000000000000000e+00" cType="1" res="-9.9000000000000000e+01" rms="0.0000000000000000e+00" purity="5.0698119401931763e-01" nType="1"/>
              <Node pos="r" depth="4" NCoef="0" IVar="-1" Cut="0.0000000000000000e+00" cType="1" res="-9.9000000000000000e+01" rms="0.0000000000000000e+00" purity="4.7679930925369263e-01" nType="-1"/>
            </Node>
          </Node>
        </Node>
        <Node pos="r" depth="1" NCoef="0" IVar="-1" Cut="1.8138322979211807e-02" cType="0" res="-9.9000000000000000e+01" rms="0.0000000000000000e+00" purity="5.0355549901723862e-02" nType="-1"/>
      </Node>
    </BinaryTree>
    <BinaryTree type="DecisionTree" boostWeight="1.4304319817474276e-01" itree="17">
      <Node pos="s" depth="0" NCoef="0" IVar="5" Cut="9.5238097012042999e-02" cType="0" res="-9.9000000000000000e+01" rms="0.0000000000000000e+00" purity="4.8800724744796753e-01" nType="0">
        <Node pos="l" depth="1" NCoef="0" IVar="5" Cut="9.5691633224487305e-01" cType="0" res="-9.9000000000000000e+01" rms="0.0000000000000000e+00" purity="7.2535067796707153e-01" nType="0">
          <Node pos="l" depth="2" NCoef="0" IVar="-1" Cut="9.8358964920043945e-01" cType="0" res="-9.9000000000000000e+01" rms="0.0000000000000000e+00" purity="9.4249397516250610e-01" nType="1"/>
          <Node pos="r" depth="2" NCoef="0" IVar="5" Cut="8.7484955787658691e-01" cType="0" res="-9.9000000000000000e+01" rms="0.0000000000000000e+00" purity="5.2142161130905151e-01" nType="0">
            <Node pos="l" depth="3" NCoef="0" IVar="-1" Cut="0.0000000000000000e+00" cType="1" res="-9.9000000000000000e+01" rms="0.0000000000000000e+00" purity="6.2429958581924438e-01" nType="1"/>
            <Node pos="r" depth="3" NCoef="0" IVar="0" Cut="2.1398988342285156e+02" cType="0" res="-9.9000000000000000e+01" rms="0.0000000000000000e+00" purity="4.9347588419914246e-01" nType="0">
              <Node pos="l" depth="4" NCoef="0" IVar="-1" Cut="0.0000000000000000e+00" cType="1" res="-9.9000000000000000e+01" rms="0.0000000000000000e+00" purity="5.0294619798660278e-01" nType="1"/>
              <Node pos="r" depth="4" NCoef="0" IVar="-1" Cut="0.0000000000000000e+00" cType="1" res="-9.9000000000000000e+01" rms="0.0000000000000000e+00" purity="4.8825004696846008e-01" nType="-1"/>
            </Node>
          </Node>
        </Node>
        <Node pos="r" depth="1" NCoef="0" IVar="-1" Cut="1.8140027299523354e-02" cType="0" res="-9.9000000000000000e+01" rms="0.0000000000000000e+00" purity="5.5487159639596939e-02" nType="-1"/>
      </Node>
    </BinaryTree>
    <BinaryTree type="DecisionTree" boostWeight="1.4054581786566284e-01" itree="18">
      <Node pos="s" depth="0" NCoef="0" IVar="5" Cut="4.7619048506021500e-02" cType="0" res="-9.9000000000000000e+01" rms="0.0000000000000000e+00" purity="4.8815938830375671e-01" nType="0">
        <Node pos="l" depth="1" NCoef="0" IVar="5" Cut="9.5464855432510376e-01" cType="0" res="-9.9000000000000000e+01" rms="0.0000000000000000e+00" purity="7.0728129148483276e-01" nType="0">
          <Node pos="l" depth="2" NCoef="0" IVar="-1" Cut="9.8920238018035889e-01" cType="0" res="-9.9000000000000000e+01" rms="0.0000000000000000e+00" purity="9.3937838077545166e-01" nType="1"/>
          <Node pos="r" depth="2" NCoef="0" IVar="5" Cut="8.6825835704803467e-01" cType="0" res="-9.9000000000000000e+01" rms="0.0000000000000000e+00" purity="5.0799232721328735e-01" nType="0">
            <Node pos="l" depth="3" NCoef="0" IVar="-1" Cut="0.0000000000000000e+00" cType="1" res="-9.9000000000000000e+01" rms="0.0000000000000000e+00" purity="5.9357184171676636e-01" nType="1"/>
            <Node pos="r" depth="3" NCoef="0" IVar="5" Cut="2.0393136143684387e-01" cType="0" res="-9.9000000000000000e+01" rms="0.0000000000000000e+00" purity="4.8664006590843201e-01" nType="0">
              <Node pos="l" depth="4" NCoef="0" IVar="-1" Cut="0.0000000000000000e+00" cType="1" res="-9.9000000000000000e+01" rms="0.0000000000000000e+00" purity="5.0676846504211426e-01" nType="1"/>
              <Node pos="r" depth="4" NCoef="0" IVar="-1" Cut="0.0000000000000000e+00" cType="1" res="-9.9000000000000000e+01" rms="0.0000000000000000e+00" purity="4.2319408059120178e-01" nType="-1"/>
            </Node>
          </Node>
        </Node>
        <Node pos="r" depth="1" NCoef="0" IVar="-1" Cut="9.0685402974486351e-03" cType="0" res="-9.9000000000000000e+01" rms="0.0000000000000000e+00" purity="3.0033558607101440e-02" nType="-1"/>
      </Node>
    </BinaryTree>
    <BinaryTree type="DecisionTree" boostWeight="1.3490972279832386e-01" itree="19">
      <Node pos="s" depth="0" NCoef="0" IVar="5" Cut="4.7619048506021500e-02" cType="0" res="-9.9000000000000000e+01" rms="0.0000000000000000e+00" purity="4.8083040118217468e-01" nType="0">
        <Node pos="l" depth="1" NCoef="0" IVar="5" Cut="9.5464920997619629e-01" cType="0" res="-9.9000000000000000e+01" rms="0.0000000000000000e+00" purity="6.9062238931655884e-01" nType="0">
          <Node pos="l" depth="2" NCoef="0" IVar="-1" Cut="9.8488396406173706e-01" cType="0" res="-9.9000000000000000e+01" rms="0.0000000000000000e+00" purity="9.2627346515655518e-01" nType="1"/>
          <Node pos="r" depth="2" NCoef="0" IVar="5" Cut="8.6826270818710327e-01" cType="0" res="-9.9000000000000000e+01" rms="0.0000000000000000e+00" purity="4.9241888523101807e-01" nType="0">
            <Node pos="l" depth="3" NCoef="0" IVar="-1" Cut="0.0000000000000000e+00" cType="1" res="-9.9000000000000000e+01" rms="0.0000000000000000e+00" purity="5.6749582290649414e-01" nType="1"/>
            <Node pos="r" depth="3" NCoef="0" IVar="-1" Cut="2.4301974475383759e-01" cType="0" res="-9.9000000000000000e+01" rms="0.0000000000000000e+00" purity="4.7300329804420471e-01" nType="-1"/>
          </Node>
        </Node>
        <Node pos="r" depth="1" NCoef="0" IVar="-1" Cut="6.8018669262528419e-03" cType="0" res="-9.9000000000000000e+01" rms="0.0000000000000000e+00" purity="3.6431107670068741e-02" nType="-1"/>
      </Node>
    </BinaryTree>
    <BinaryTree type="DecisionTree" boostWeight="1.3117164009249316e-01" itree="20">
      <Node pos="s" depth="0" NCoef="0" IVar="5" Cut="4.7619048506021500e-02" cType="0" res="-9.9000000000000000e+01" rms="0.0000000000000000e+00" purity="4.8724311590194702e-01" nType="0">
        <Node pos="l" depth="1" NCoef="0" IVar="5" Cut="9.5464855432510376e-01" cType="0" res="-9.9000000000000000e+01" rms="0.0000000000000000e+00" purity="6.9551771879196167e-01" nType="0">
          <Node pos="l" depth="2" NCoef="0" IVar="-1" Cut="9.8920273780822754e-01" cType="0" res="-9.9000000000000000e+01" rms="0.0000000000000000e+00" purity="9.2685824632644653e-01" nType="1"/>
          <Node pos="r" depth="2" NCoef="0" IVar="5" Cut="8.6826294660568237e-01" cType="0" res="-9.9000000000000000e+01" rms="0.0000000000000000e+00" purity="5.0572586059570312e-01" nType="0">
            <Node pos="l" depth="3" NCoef="0" IVar="-1" Cut="0.0000000000000000e+00" cType="1" res="-9.9000000000000000e+01" rms="0.0000000000000000e+00" purity="5.6433916091918945e-01" nType="1"/>
            <Node pos="r" depth="3" NCoef="0" IVar="5" Cut="2.8208839893341064e-01" cType="0" res="-9.9000000000000000e+01" rms="0.0000000000000000e+00" purity="4.9087584018707275e-01" nType="0">
              <Node pos="l" depth="4" NCoef="0" IVar="-1" Cut="0.0000000000000000e+00" cType="1" res="-9.9000000000000000e+01" rms="0.0000000000000000e+00" purity="5.0515317916870117e-01" nType="1"/>
              <Node pos="r" depth="4" NCoef="0" IVar="-1" Cut="0.0000000000000000e+00" cType="1" res="-9.9000000000000000e+01" rms="0.0000000000000000e+00" purity="4.6113014221191406e-01" nType="-1"/>
            </Node>
          </Node>
        </Node>
        <Node pos="r" depth="1" NCoef="0" IVar="-1" Cut="9.0685402974486351e-03" cType="0" res="-9.9000000000000000e+01" rms="0.0000000000000000e+00" purity="3.6334034055471420e-02" nType="-1"/>
      </Node>
    </BinaryTree>
    <BinaryTree type="DecisionTree" boostWeight="1.2799874916494544e-01" itree="21">
      <Node pos="s" depth="0" NCoef="0" IVar="5" Cut="4.7619048506021500e-02" cType="0" res="-9.9000000000000000e+01" rms="0.0000000000000000e+00" purity="4.8355418443679810e-01" nType="0">
        <Node pos="l" depth="1" NCoef="0" IVar="5" Cut="9.5464867353439331e-01" cType="0" res="-9.9000000000000000e+01" rms="0.0000000000000000e+00" purity="6.8643552064895630e-01" nType="0">
          <Node pos="l" depth="2" NCoef="0" IVar="-1" Cut="9.8272383213043213e-01" cType="0" res="-9.9000000000000000e+01" rms="0.0000000000000000e+00" purity="9.2283082008361816e-01" nType="1"/>
          <Node pos="r" depth="2" NCoef="0" IVar="5" Cut="8.6825937032699585e-01" cType="0" res="-9.9000000000000000e+01" rms="0.0000000000000000e+00" purity="4.9735578894615173e-01" nType="0">
            <Node pos="l" depth="3" NCoef="0" IVar="-1" Cut="0.0000000000000000e+00" cType="1" res="-9.9000000000000000e+01" rms="0.0000000000000000e+00" purity="5.5389529466629028e-01" nType="1"/>
            <Node pos="r" depth="3" NCoef="0" IVar="-1" Cut="4.7747728228569031e-01" cType="1" res="-9.9000000000000000e+01" rms="0.0000000000000000e+00" purity="4.8355948925018311e-01" nType="-1"/>
          </Node>
        </Node>
        <Node pos="r" depth="1" NCoef="0" IVar="-1" Cut="9.0679507702589035e-03" cType="0" res="-9.9000000000000000e+01" rms="0.0000000000000000e+00" purity="3.9582587778568268e-02" nType="-1"/>
      </Node>
    </BinaryTree>
    <BinaryTree type="DecisionTree" boostWeight="1.2303763267487069e-01" itree="22">
      <Node pos="s" depth="0" NCoef="0" IVar="5" Cut="4.7619048506021500e-02" cType="0" res="-9.9000000000000000e+01" rms="0.0000000000000000e+00" purity="4.8888644576072693e-01" nType="0">
        <Node pos="l" depth="1" NCoef="0" IVar="5" Cut="9.5464920997619629e-01" cType="0" res="-9.9000000000000000e+01" rms="0.0000000000000000e+00" purity="6.8758004903793335e-01" nType="0">
          <Node pos="l" depth="2" NCoef="0" IVar="-1" Cut="9.8704272508621216e-01" cType="0" res="-9.9000000000000000e+01" rms="0.0000000000000000e+00" purity="9.1743099689483643e-01" nType="1"/>
          <Node pos="r" depth="2" NCoef="0" IVar="5" Cut="5.6592541933059692e-01" cType="1" res="-9.9000000000000000e+01" rms="0.0000000000000000e+00" purity="5.1097214221954346e-01" nType="0">
            <Node pos="l" depth="3" NCoef="0" IVar="-1" Cut="0.0000000000000000e+00" cType="1" res="-9.9000000000000000e+01" rms="0.0000000000000000e+00" purity="5.2188360691070557e-01" nType="1"/>
            <Node pos="r" depth="3" NCoef="0" IVar="5" Cut="8.4359836578369141e-01" cType="0" res="-9.9000000000000000e+01" rms="0.0000000000000000e+00" purity="5.0094121694564819e-01" nType="0">
              <Node pos="l" depth="4" NCoef="0" IVar="-1" Cut="0.0000000000000000e+00" cType="1" res="-9.9000000000000000e+01" rms="0.0000000000000000e+00" purity="5.1836621761322021e-01" nType="1"/>
              <Node pos="r" depth="4" NCoef="0" IVar="-1" Cut="0.0000000000000000e+00" cType="1" res="-9.9000000000000000e+01" rms="0.0000000000000000e+00" purity="4.8589468002319336e-01" nType="-1"/>
            </Node>
          </Node>
        </Node>
        <Node pos="r" depth="1" NCoef="0" IVar="-1" Cut="6.8009630776941776e-03" cType="0" res="-9.9000000000000000e+01" rms="0.0000000000000000e+00" purity="4.2065329849720001e-02" nType="-1"/>
      </Node>
    </BinaryTree>
    <BinaryTree type="DecisionTree" boostWeight="1.1770490715927746e-01" itree="23">
      <Node pos="s" depth="0" NCoef="0" IVar="5" Cut="4.7619048506021500e-02" cType="0" res="-9.9000000000000000e+01" rms="0.0000000000000000e+00" purity="4.8600375652313232e-01" nType="0">
        <Node pos="l" depth="1" NCoef="0" IVar="5" Cut="9.5464855432510376e-01" cType="0" res="-9.9000000000000000e+01" rms="0.0000000000000000e+00" purity="6.7836207151412964e-01" nType="0">
          <Node pos="l" depth="2" NCoef="0" IVar="-1" Cut="9.8704284429550171e-01" cType="0" res="-9.9000000000000000e+01" rms="0.0000000000000000e+00" purity="9.0966874361038208e-01" nType="1"/>
          <Node pos="r" depth="2" NCoef="0" IVar="5" Cut="8.6825835704803467e-01" cType="0" res="-9.9000000000000000e+01" rms="0.0000000000000000e+00" purity="5.0359344482421875e-01" nType="0">
            <Node pos="l" depth="3" NCoef="0" IVar="-1" Cut="0.0000000000000000e+00" cType="1" res="-9.9000000000000000e+01" rms="0.0000000000000000e+00" purity="5.2302789688110352e-01" nType="1"/>
            <Node pos="r" depth="3" NCoef="0" IVar="5" Cut="2.0393136143684387e-01" cType="0" res="-9.9000000000000000e+01" rms="0.0000000000000000e+00" purity="4.9886399507522583e-01" nType="0">
              <Node pos="l" depth="4" NCoef="0" IVar="-1" Cut="0.0000000000000000e+00" cType="1" res="-9.9000000000000000e+01" rms="0.0000000000000000e+00" purity="5.0339245796203613e-01" nType="1"/>
              <Node pos="r" depth="4" NCoef="0" IVar="-1" Cut="0.0000000000000000e+00" cType="1" res="-9.9000000000000000e+01" rms="0.0000000000000000e+00" purity="4.8496007919311523e-01" nType="-1"/>
            </Node>
          </Node>
        </Node>
        <Node pos="r" depth="1" NCoef="0" IVar="-1" Cut="9.0691559016704559e-03" cType="0" res="-9.9000000000000000e+01" rms="0.0000000000000000e+00" purity="4.6849422156810760e-02" nType="-1"/>
      </Node>
    </BinaryTree>
    <BinaryTree type="DecisionTree" boostWeight="1.1604506236278754e-01" itree="24">
      <Node pos="s" depth="0" NCoef="0" IVar="5" Cut="4.7619048506021500e-02" cType="0" res="-9.9000000000000000e+01" rms="0.0000000000000000e+00" purity="4.7902807593345642e-01" nType="0">
        <Node pos="l" depth="1" NCoef="0" IVar="5" Cut="9.5464867353439331e-01" cType="0" res="-9.9000000000000000e+01" rms="0.0000000000000000e+00" purity="6.6456508636474609e-01" nType="0">
          <Node pos="l" depth="2" NCoef="0" IVar="-1" Cut="9.8272383213043213e-01" cType="0" res="-9.9000000000000000e+01" rms="0.0000000000000000e+00" purity="9.0741312503814697e-01" nType="1"/>
          <Node pos="r" depth="2" NCoef="0" IVar="2" Cut="5.9392625093460083e-01" cType="1" res="-9.9000000000000000e+01" rms="0.0000000000000000e+00" purity="4.8749035596847534e-01" nType="0">
            <Node pos="l" depth="3" NCoef="0" IVar="-1" Cut="0.0000000000000000e+00" cType="1" res="-9.9000000000000000e+01" rms="0.0000000000000000e+00" purity="5.0059682130813599e-01" nType="1"/>
            <Node pos="r" depth="3" NCoef="0" IVar="-1" Cut="1.8943240356445312e+02" cType="0" res="-9.9000000000000000e+01" rms="0.0000000000000000e+00" purity="4.8334956169128418e-01" nType="-1"/>
          </Node>
        </Node>
        <Node pos="r" depth="1" NCoef="0" IVar="-1" Cut="9.0700397267937660e-03" cType="0" res="-9.9000000000000000e+01" rms="0.0000000000000000e+00" purity="4.7262564301490784e-02" nType="-1"/>
      </Node>
    </BinaryTree>
    <BinaryTree type="DecisionTree" boostWeight="1.1244936711857233e-01" itree="25">
      <Node pos="s" depth="0" NCoef="0" IVar="5" Cut="4.7619048506021500e-02" cType="0" res="-9.9000000000000000e+01" rms="0.0000000000000000e+00" purity="4.8433098196983337e-01" nType="0">
        <Node pos="l" depth="1" NCoef="0" IVar="5" Cut="9.5464903116226196e-01" cType="0" res="-9.9000000000000000e+01" rms="0.0000000000000000e+00" purity="6.6723090410232544e-01" nType="0">
          <Node pos="l" depth="2" NCoef="0" IVar="-1" Cut="9.8272383213043213e-01" cType="0" res="-9.9000000000000000e+01" rms="0.0000000000000000e+00" purity="8.9757919311523438e-01" nType="1"/>
          <Node pos="r" depth="2" NCoef="0" IVar="2" Cut="5.9638530015945435e-01" cType="0" res="-9.9000000000000000e+01" rms="0.0000000000000000e+00" purity="5.0091743469238281e-01" nType="0">
            <Node pos="l" depth="3" NCoef="0" IVar="1" Cut="5.8203023672103882e-01" cType="1" res="-9.9000000000000000e+01" rms="0.0000000000000000e+00" purity="5.0713467597961426e-01" nType="0">
              <Node pos="l" depth="4" NCoef="0" IVar="-1" Cut="0.0000000000000000e+00" cType="1" res="-9.9000000000000000e+01" rms="0.0000000000000000e+00" purity="5.1250648498535156e-01" nType="1"/>
              <Node pos="r" depth="4" NCoef="0" IVar="-1" Cut="0.0000000000000000e+00" cType="1" res="-9.9000000000000000e+01" rms="0.0000000000000000e+00" purity="4.9855720996856689e-01" nType="-1"/>
            </Node>
            <Node pos="r" depth="3" NCoef="0" IVar="-1" Cut="0.0000000000000000e+00" cType="1" res="-9.9000000000000000e+01" rms="0.0000000000000000e+00" purity="4.8180761933326721e-01" nType="-1"/>
          </Node>
        </Node>
        <Node pos="r" depth="1" NCoef="0" IVar="-1" Cut="6.8025295622646809e-03" cType="0" res="-9.9000000000000000e+01" rms="0.0000000000000000e+00" purity="5.1180604845285416e-02" nType="-1"/>
      </Node>
    </BinaryTree>
    <BinaryTree type="DecisionTree" boostWeight="1.1041135923303336e-01" itree="26">
      <Node pos="s" depth="0" NCoef="0" IVar="5" Cut="4.7619048506021500e-02" cType="0" res="-9.9000000000000000e+01" rms="0.0000000000000000e+00" purity="4.8592367768287659e-01" nType="0">
        <Node pos="l" depth="1" NCoef="0" IVar="5" Cut="9.5464915037155151e-01" cType="0" res="-9.9000000000000000e+01" rms="0.0000000000000000e+00" purity="6.6528600454330444e-01" nType="0">
          <Node pos="l" depth="2" NCoef="0" IVar="-1" Cut="9.8920398950576782e-01" cType="0" res="-9.9000000000000000e+01" rms="0.0000000000000000e+00" purity="8.9576804637908936e-01" nType="1"/>
          <Node pos="r" depth="2" NCoef="0" IVar="1" Cut="4.9565541744232178e-01" cType="0" res="-9.9000000000000000e+01" rms="0.0000000000000000e+00" purity="5.0267672538757324e-01" nType="0">
            <Node pos="l" depth="3" NCoef="0" IVar="-1" Cut="7.8188103437423706e-01" cType="0" res="-9.9000000000000000e+01" rms="0.0000000000000000e+00" purity="5.1184701919555664e-01" nType="1"/>
            <Node pos="r" depth="3" NCoef="0" IVar="-1" Cut="0.0000000000000000e+00" cType="1" res="-9.9000000000000000e+01" rms="0.0000000000000000e+00" purity="4.8846945166587830e-01" nType="-1"/>
          </Node>
        </Node>
        <Node pos="r" depth="1" NCoef="0" IVar="-1" Cut="6.8025295622646809e-03" cType="0" res="-9.9000000000000000e+01" rms="0.0000000000000000e+00" purity="5.6287508457899094e-02" nType="-1"/>
      </Node>
    </BinaryTree>
    <BinaryTree type="DecisionTree" boostWeight="1.0918377889439590e-01" itree="27">
      <Node pos="s" depth="0" NCoef="0" IVar="5" Cut="4.7619048506021500e-02" cType="0" res="-9.9000000000000000e+01" rms="0.0000000000000000e+00" purity="4.8138248920440674e-01" nType="0">
        <Node pos="l" depth="1" NCoef="0" IVar="5" Cut="9.5464915037155151e-01" cType="0" res="-9.9000000000000000e+01" rms="0.0000000000000000e+00" purity="6.5700840950012207e-01" nType="0">
          <Node pos="l" depth="2" NCoef="0" IVar="-1" Cut="9.8704344034194946e-01" cType="0" res="-9.9000000000000000e+01" rms="0.0000000000000000e+00" purity="8.9147686958312988e-01" nType="1"/>
          <Node pos="r" depth="2" NCoef="0" IVar="5" Cut="4.3635195493698120e-01" cType="1" res="-9.9000000000000000e+01" rms="0.0000000000000000e+00" purity="4.9637347459793091e-01" nType="0">
            <Node pos="l" depth="3" NCoef="0" IVar="-1" Cut="0.0000000000000000e+00" cType="1" res="-9.9000000000000000e+01" rms="0.0000000000000000e+00" purity="5.0858914852142334e-01" nType="1"/>
            <Node pos="r" depth="3" NCoef="0" IVar="5" Cut="8.3124589920043945e-01" cType="0" res="-9.9000000000000000e+01" rms="0.0000000000000000e+00" purity="4.8895561695098877e-01" nType="0">
              <Node pos="l" depth="4" NCoef="0" IVar="-1" Cut="0.0000000000000000e+00" cType="1" res="-9.9000000000000000e+01" rms="0.0000000000000000e+00" purity="5.0609105825424194e-01" nType="1"/>
              <Node pos="r" depth="4" NCoef="0" IVar="-1" Cut="0.0000000000000000e+00" cType="1" res="-9.9000000000000000e+01" rms="0.0000000000000000e+00" purity="4.7673341631889343e-01" nType="-1"/>
            </Node>
          </Node>
        </Node>
        <Node pos="r" depth="1" NCoef="0" IVar="-1" Cut="6.8025295622646809e-03" cType="0" res="-9.9000000000000000e+01" rms="0.0000000000000000e+00" purity="5.1156401634216309e-02" nType="-1"/>
      </Node>
    </BinaryTree>
    <BinaryTree type="DecisionTree" boostWeight="1.0669176587294267e-01" itree="28">
      <Node pos="s" depth="0" NCoef="0" IVar="5" Cut="4.7619048506021500e-02" cType="0" res="-9.9000000000000000e+01" rms="0.0000000000000000e+00" purity="4.8021343350410461e-01" nType="0">
        <Node pos="l" depth="1" NCoef="0" IVar="5" Cut="9.5464855432510376e-01" cType="0" res="-9.9000000000000000e+01" rms="0.0000000000000000e+00" purity="6.5230214595794678e-01" nType="0">
          <Node pos="l" depth="2" NCoef="0" IVar="-1" Cut="9.8704338073730469e-01" cType="0" res="-9.9000000000000000e+01" rms="0.0000000000000000e+00" purity="8.8598257303237915e-01" nType="1"/>
          <Node pos="r" depth="2" NCoef="0" IVar="0" Cut="2.1575975036621094e+02" cType="1" res="-9.9000000000000000e+01" rms="0.0000000000000000e+00" purity="4.9436816573143005e-01" nType="0">
            <Node pos="l" depth="3" NCoef="0" IVar="1" Cut="4.9678033590316772e-01" cType="1" res="-9.9000000000000000e+01" rms="0.0000000000000000e+00" purity="5.0090557336807251e-01" nType="0">
              <Node pos="l" depth="4" NCoef="0" IVar="-1" Cut="0.0000000000000000e+00" cType="1" res="-9.9000000000000000e+01" rms="0.0000000000000000e+00" purity="5.1289874315261841e-01" nType="1"/>
              <Node pos="r" depth="4" NCoef="0" IVar="-1" Cut="0.0000000000000000e+00" cType="1" res="-9.9000000000000000e+01" rms="0.0000000000000000e+00" purity="4.9312114715576172e-01" nType="-1"/>
            </Node>
            <Node pos="r" depth="3" NCoef="0" IVar="-1" Cut="0.0000000000000000e+00" cType="1" res="-9.9000000000000000e+01" rms="0.0000000000000000e+00" purity="4.8179039359092712e-01" nType="-1"/>
          </Node>
        </Node>
        <Node pos="r" depth="1" NCoef="0" IVar="-1" Cut="9.0700397267937660e-03" cType="0" res="-9.9000000000000000e+01" rms="0.0000000000000000e+00" purity="5.6599505245685577e-02" nType="-1"/>
      </Node>
    </BinaryTree>
    <BinaryTree type="DecisionTree" boostWeight="1.0370116201455391e-01" itree="29">
      <Node pos="s" depth="0" NCoef="0" IVar="5" Cut="4.7619048506021500e-02" cType="0" res="-9.9000000000000000e+01" rms="0.0000000000000000e+00" purity="4.8219454288482666e-01" nType="0">
        <Node pos="l" depth="1" NCoef="0" IVar="5" Cut="9.5464909076690674e-01" cType="0" res="-9.9000000000000000e+01" rms="0.0000000000000000e+00" purity="6.4958113431930542e-01" nType="0">
          <Node pos="l" depth="2" NCoef="0" IVar="-1" Cut="9.8272383213043213e-01" cType="0" res="-9.9000000000000000e+01" rms="0.0000000000000000e+00" purity="8.8048833608627319e-01" nType="1"/>
          <Node pos="r" depth="2" NCoef="0" IVar="5" Cut="2.6358431577682495e-01" cType="0" res="-9.9000000000000000e+01" rms="0.0000000000000000e+00" purity="4.9723985791206360e-01" nType="0">
            <Node pos="l" depth="3" NCoef="0" IVar="0" Cut="1.9925689697265625e+02" cType="1" res="-9.9000000000000000e+01" rms="0.0000000000000000e+00" purity="5.0302243232727051e-01" nType="0">
              <Node pos="l" depth="4" NCoef="0" IVar="-1" Cut="0.0000000000000000e+00" cType="1" res="-9.9000000000000000e+01" rms="0.0000000000000000e+00" purity="5.1198399066925049e-01" nType="1"/>
              <Node pos="r" depth="4" NCoef="0" IVar="-1" Cut="0.0000000000000000e+00" cType="1" res="-9.9000000000000000e+01" rms="0.0000000000000000e+00" purity="4.9124962091445923e-01" nType="-1"/>
            </Node>
            <Node pos="r" depth="3" NCoef="0" IVar="-1" Cut="0.0000000000000000e+00" cType="1" res="-9.9000000000000000e+01" rms="0.0000000000000000e+00" purity="4.7919276356697083e-01" nType="-1"/>
          </Node>
        </Node>
        <Node pos="r" depth="1" NCoef="0" IVar="-1" Cut="9.0686222538352013e-03" cType="0" res="-9.9000000000000000e+01" rms="0.0000000000000000e+00" purity="6.3933692872524261e-02" nType="-1"/>
      </Node>
    </BinaryTree>
    <BinaryTree type="DecisionTree" boostWeight="9.9664826154003863e-02" itree="30">
      <Node pos="s" depth="0" NCoef="0" IVar="5" Cut="4.7619048506021500e-02" cType="0" res="-9.9000000000000000e+01" rms="0.0000000000000000e+00" purity="4.8227697610855103e-01" nType="0">
        <Node pos="l" depth="1" NCoef="0" IVar="5" Cut="9.5464867353439331e-01" cType="0" res="-9.9000000000000000e+01" rms="0.0000000000000000e+00" purity="6.4366793632507324e-01" nType="0">
          <Node pos="l" depth="2" NCoef="0" IVar="-1" Cut="9.8272699117660522e-01" cType="0" res="-9.9000000000000000e+01" rms="0.0000000000000000e+00" purity="8.7222999334335327e-01" nType="1"/>
          <Node pos="r" depth="2" NCoef="0" IVar="5" Cut="7.3868697881698608e-01" cType="1" res="-9.9000000000000000e+01" rms="0.0000000000000000e+00" purity="4.9645242094993591e-01" nType="0">
            <Node pos="l" depth="3" NCoef="0" IVar="1" Cut="5.3258502483367920e-01" cType="1" res="-9.9000000000000000e+01" rms="0.0000000000000000e+00" purity="5.0258380174636841e-01" nType="0">
              <Node pos="l" depth="4" NCoef="0" IVar="-1" Cut="0.0000000000000000e+00" cType="1" res="-9.9000000000000000e+01" rms="0.0000000000000000e+00" purity="5.1050573587417603e-01" nType="1"/>
              <Node pos="r" depth="4" NCoef="0" IVar="-1" Cut="0.0000000000000000e+00" cType="1" res="-9.9000000000000000e+01" rms="0.0000000000000000e+00" purity="4.9500930309295654e-01" nType="-1"/>
            </Node>
            <Node pos="r" depth="3" NCoef="0" IVar="-1" Cut="0.0000000000000000e+00" cType="1" res="-9.9000000000000000e+01" rms="0.0000000000000000e+00" purity="4.8608312010765076e-01" nType="-1"/>
          </Node>
        </Node>
        <Node pos="r" depth="1" NCoef="0" IVar="-1" Cut="6.8025295622646809e-03" cType="0" res="-9.9000000000000000e+01" rms="0.0000000000000000e+00" purity="6.8240776658058167e-02" nType="-1"/>
      </Node>
    </BinaryTree>
    <BinaryTree type="DecisionTree" boostWeight="9.9344455751862293e-02" itree="31">
      <Node pos="s" depth="0" NCoef="0" IVar="5" Cut="4.7619048506021500e-02" cType="0" res="-9.9000000000000000e+01" rms="0.0000000000000000e+00" purity="4.8329746723175049e-01" nType="0">
        <Node pos="l" depth="1" NCoef="0" IVar="5" Cut="9.5464855432510376e-01" cType="0" res="-9.9000000000000000e+01" rms="0.0000000000000000e+00" purity="6.4531332254409790e-01" nType="0">
          <Node pos="l" depth="2" NCoef="0" IVar="-1" Cut="9.8704284429550171e-01" cType="0" res="-9.9000000000000000e+01" rms="0.0000000000000000e+00" purity="8.6463278532028198e-01" nType="1"/>
          <Node pos="r" depth="2" NCoef="0" IVar="1" Cut="5.7068628072738647e-01" cType="0" res="-9.9000000000000000e+01" rms="0.0000000000000000e+00" purity="5.0557178258895874e-01" nType="0">
            <Node pos="l" depth="3" NCoef="0" IVar="-1" Cut="0.0000000000000000e+00" cType="1" res="-9.9000000000000000e+01" rms="0.0000000000000000e+00" purity="5.2087646722793579e-01" nType="1"/>
            <Node pos="r" depth="3" NCoef="0" IVar="0" Cut="1.9006434631347656e+02" cType="0" res="-9.9000000000000000e+01" rms="0.0000000000000000e+00" purity="4.9459657073020935e-01" nType="0">
              <Node pos="l" depth="4" NCoef="0" IVar="-1" Cut="0.0000000000000000e+00" cType="1" res="-9.9000000000000000e+01" rms="0.0000000000000000e+00" purity="5.0337159633636475e-01" nType="1"/>
              <Node pos="r" depth="4" NCoef="0" IVar="-1" Cut="0.0000000000000000e+00" cType="1" res="-9.9000000000000000e+01" rms="0.0000000000000000e+00" purity="4.8651054501533508e-01" nType="-1"/>
            </Node>
          </Node>
        </Node>
        <Node pos="r" depth="1" NCoef="0" IVar="-1" Cut="6.8025295622646809e-03" cType="0" res="-9.9000000000000000e+01" rms="0.0000000000000000e+00" purity="6.5158329904079437e-02" nType="-1"/>
      </Node>
    </BinaryTree>
    <BinaryTree type="DecisionTree" boostWeight="9.4686111141244811e-02" itree="32">
      <Node pos="s" depth="0" NCoef="0" IVar="5" Cut="4.7619048506021500e-02" cType="0" res="-9.9000000000000000e+01" rms="0.0000000000000000e+00" purity="4.8285034298896790e-01" nType="0">
        <Node pos="l" depth="1" NCoef="0" IVar="5" Cut="9.5464855432510376e-01" cType="0" res="-9.9000000000000000e+01" rms="0.0000000000000000e+00" purity="6.3862389326095581e-01" nType="0">
          <Node pos="l" depth="2" NCoef="0" IVar="-1" Cut="9.8920226097106934e-01" cType="0" res="-9.9000000000000000e+01" rms="0.0000000000000000e+00" purity="8.5630214214324951e-01" nType="1"/>
          <Node pos="r" depth="2" NCoef="0" IVar="5" Cut="6.0911101102828979e-01" cType="0" res="-9.9000000000000000e+01" rms="0.0000000000000000e+00" purity="5.0239878892898560e-01" nType="0">
            <Node pos="l" depth="3" NCoef="0" IVar="3" Cut="7.6867753267288208e-01" cType="0" res="-9.9000000000000000e+01" rms="0.0000000000000000e+00" purity="5.0914019346237183e-01" nType="0">
              <Node pos="l" depth="4" NCoef="0" IVar="-1" Cut="0.0000000000000000e+00" cType="1" res="-9.9000000000000000e+01" rms="0.0000000000000000e+00" purity="5.1984083652496338e-01" nType="1"/>
              <Node pos="r" depth="4" NCoef="0" IVar="-1" Cut="0.0000000000000000e+00" cType="1" res="-9.9000000000000000e+01" rms="0.0000000000000000e+00" purity="4.9864992499351501e-01" nType="-1"/>
            </Node>
            <Node pos="r" depth="3" NCoef="0" IVar="5" Cut="2.3478201031684875e-01" cType="0" res="-9.9000000000000000e+01" rms="0.0000000000000000e+00" purity="4.9607148766517639e-01" nType="0">
              <Node pos="l" depth="4" NCoef="0" IVar="-1" Cut="0.0000000000000000e+00" cType="1" res="-9.9000000000000000e+01" rms="0.0000000000000000e+00" purity="5.0111150741577148e-01" nType="1"/>
              <Node pos="r" depth="4" NCoef="0" IVar="-1" Cut="0.0000000000000000e+00" cType="1" res="-9.9000000000000000e+01" rms="0.0000000000000000e+00" purity="4.8921793699264526e-01" nType="-1"/>
            </Node>
          </Node>
        </Node>
        <Node pos="r" depth="1" NCoef="0" IVar="-1" Cut="9.0700397267937660e-03" cType="0" res="-9.9000000000000000e+01" rms="0.0000000000000000e+00" purity="7.2667539119720459e-02" nType="-1"/>
      </Node>
    </BinaryTree>
    <BinaryTree type="DecisionTree" boostWeight="9.3995080294570224e-02" itree="33">
      <Node pos="s" depth="0" NCoef="0" IVar="5" Cut="4.7619048506021500e-02" cType="0" res="-9.9000000000000000e+01" rms="0.0000000000000000e+00" purity="4.8141798377037048e-01" nType="0">
        <Node pos="l" depth="1" NCoef="0" IVar="5" Cut="9.5464915037155151e-01" cType="0" res="-9.9000000000000000e+01" rms="0.0000000000000000e+00" purity="6.3454377651214600e-01" nType="0">
          <Node pos="l" depth="2" NCoef="0" IVar="-1" Cut="9.8704326152801514e-01" cType="0" res="-9.9000000000000000e+01" rms="0.0000000000000000e+00" purity="8.5032683610916138e-01" nType="1"/>
          <Node pos="r" depth="2" NCoef="0" IVar="1" Cut="4.5364657044410706e-01" cType="0" res="-9.9000000000000000e+01" rms="0.0000000000000000e+00" purity="5.0146603584289551e-01" nType="0">
            <Node pos="l" depth="3" NCoef="0" IVar="-1" Cut="6.5230727195739746e-01" cType="0" res="-9.9000000000000000e+01" rms="0.0000000000000000e+00" purity="5.0978630781173706e-01" nType="1"/>
            <Node pos="r" depth="3" NCoef="0" IVar="-1" Cut="0.0000000000000000e+00" cType="1" res="-9.9000000000000000e+01" rms="0.0000000000000000e+00" purity="4.8177042603492737e-01" nType="-1"/>
          </Node>
        </Node>
        <Node pos="r" depth="1" NCoef="0" IVar="-1" Cut="6.8016611039638519e-03" cType="0" res="-9.9000000000000000e+01" rms="0.0000000000000000e+00" purity="7.3553711175918579e-02" nType="-1"/>
      </Node>
    </BinaryTree>
    <BinaryTree type="DecisionTree" boostWeight="9.4188100027962421e-02" itree="34">
      <Node pos="s" depth="0" NCoef="0" IVar="5" Cut="4.7619048506021500e-02" cType="0" res="-9.9000000000000000e+01" rms="0.0000000000000000e+00" purity="4.7999998927116394e-01" nType="0">
        <Node pos="l" depth="1" NCoef="0" IVar="5" Cut="9.5464867353439331e-01" cType="0" res="-9.9000000000000000e+01" rms="0.0000000000000000e+00" purity="6.3087731599807739e-01" nType="0">
          <Node pos="l" depth="2" NCoef="0" IVar="-1" Cut="9.8704284429550171e-01" cType="0" res="-9.9000000000000000e+01" rms="0.0000000000000000e+00" purity="8.5978686809539795e-01" nType="1"/>
          <Node pos="r" depth="2" NCoef="0" IVar="5" Cut="2.2038890421390533e-01" cType="1" res="-9.9000000000000000e+01" rms="0.0000000000000000e+00" purity="4.9510198831558228e-01" nType="0">
            <Node pos="l" depth="3" NCoef="0" IVar="-1" Cut="0.0000000000000000e+00" cType="1" res="-9.9000000000000000e+01" rms="0.0000000000000000e+00" purity="5.2198988199234009e-01" nType="1"/>
            <Node pos="r" depth="3" NCoef="0" IVar="-1" Cut="6.3997566699981689e-01" cType="0" res="-9.9000000000000000e+01" rms="0.0000000000000000e+00" purity="4.8787471652030945e-01" nType="-1"/>
          </Node>
        </Node>
        <Node pos="r" depth="1" NCoef="0" IVar="-1" Cut="6.8025295622646809e-03" cType="0" res="-9.9000000000000000e+01" rms="0.0000000000000000e+00" purity="7.4776187539100647e-02" nType="-1"/>
      </Node>
    </BinaryTree>
    <BinaryTree type="DecisionTree" boostWeight="9.0264808897618801e-02" itree="35">
      <Node pos="s" depth="0" NCoef="0" IVar="5" Cut="4.7619048506021500e-02" cType="0" res="-9.9000000000000000e+01" rms="0.0000000000000000e+00" purity="4.7912576794624329e-01" nType="0">
        <Node pos="l" depth="1" NCoef="0" IVar="5" Cut="9.5464932918548584e-01" cType="0" res="-9.9000000000000000e+01" rms="0.0000000000000000e+00" purity="6.2557357549667358e-01" nType="0">
          <Node pos="l" depth="2" NCoef="0" IVar="-1" Cut="9.8920226097106934e-01" cType="0" res="-9.9000000000000000e+01" rms="0.0000000000000000e+00" purity="8.4251618385314941e-01" nType="1"/>
          <Node pos="r" depth="2" NCoef="0" IVar="5" Cut="6.5230947732925415e-01" cType="0" res="-9.9000000000000000e+01" rms="0.0000000000000000e+00" purity="4.9647131562232971e-01" nType="0">
            <Node pos="l" depth="3" NCoef="0" IVar="-1" Cut="8.6828094720840454e-01" cType="1" res="-9.9000000000000000e+01" rms="0.0000000000000000e+00" purity="5.0810873508453369e-01" nType="1"/>
            <Node pos="r" depth="3" NCoef="0" IVar="-1" Cut="8.0092710256576538e-01" cType="1" res="-9.9000000000000000e+01" rms="0.0000000000000000e+00" purity="4.8688605427742004e-01" nType="-1"/>
          </Node>
        </Node>
        <Node pos="r" depth="1" NCoef="0" IVar="-1" Cut="6.8025295622646809e-03" cType="0" res="-9.9000000000000000e+01" rms="0.0000000000000000e+00" purity="7.7716805040836334e-02" nType="-1"/>
      </Node>
    </BinaryTree>
    <BinaryTree type="DecisionTree" boostWeight="8.8103522362530218e-02" itree="36">
      <Node pos="s" depth="0" NCoef="0" IVar="5" Cut="4.7619048506021500e-02" cType="0" res="-9.9000000000000000e+01" rms="0.0000000000000000e+00" purity="4.8340052366256714e-01" nType="0">
        <Node pos="l" depth="1" NCoef="0" IVar="5" Cut="9.5464867353439331e-01" cType="0" res="-9.9000000000000000e+01" rms="0.0000000000000000e+00" purity="6.2806814908981323e-01" nType="0">
          <Node pos="l" depth="2" NCoef="0" IVar="-1" Cut="9.8920279741287231e-01" cType="0" res="-9.9000000000000000e+01" rms="0.0000000000000000e+00" purity="8.4319812059402466e-01" nType="1"/>
          <Node pos="r" depth="2" NCoef="0" IVar="3" Cut="7.7516049146652222e-01" cType="1" res="-9.9000000000000000e+01" rms="0.0000000000000000e+00" purity="5.0316280126571655e-01" nType="0">
            <Node pos="l" depth="3" NCoef="0" IVar="-1" Cut="6.7224764823913574e-01" cType="0" res="-9.9000000000000000e+01" rms="0.0000000000000000e+00" purity="5.1071560382843018e-01" nType="1"/>
            <Node pos="r" depth="3" NCoef="0" IVar="5" Cut="4.7953778505325317e-01" cType="1" res="-9.9000000000000000e+01" rms="0.0000000000000000e+00" purity="4.9678713083267212e-01" nType="0">
              <Node pos="l" depth="4" NCoef="0" IVar="-1" Cut="0.0000000000000000e+00" cType="1" res="-9.9000000000000000e+01" rms="0.0000000000000000e+00" purity="5.0580286979675293e-01" nType="1"/>
              <Node pos="r" depth="4" NCoef="0" IVar="-1" Cut="0.0000000000000000e+00" cType="1" res="-9.9000000000000000e+01" rms="0.0000000000000000e+00" purity="4.8893606662750244e-01" nType="-1"/>
            </Node>
          </Node>
        </Node>
        <Node pos="r" depth="1" NCoef="0" IVar="-1" Cut="9.0688811615109444e-03" cType="0" res="-9.9000000000000000e+01" rms="0.0000000000000000e+00" purity="8.8455639779567719e-02" nType="-1"/>
      </Node>
    </BinaryTree>
    <BinaryTree type="DecisionTree" boostWeight="8.4804172451772575e-02" itree="37">
      <Node pos="s" depth="0" NCoef="0" IVar="5" Cut="4.7619048506021500e-02" cType="0" res="-9.9000000000000000e+01" rms="0.0000000000000000e+00" purity="4.8122110962867737e-01" nType="0">
        <Node pos="l" depth="1" NCoef="0" IVar="5" Cut="9.5464903116226196e-01" cType="0" res="-9.9000000000000000e+01" rms="0.0000000000000000e+00" purity="6.2034267187118530e-01" nType="0">
          <Node pos="l" depth="2" NCoef="0" IVar="-1" Cut="9.8704272508621216e-01" cType="0" res="-9.9000000000000000e+01" rms="0.0000000000000000e+00" purity="8.2957065105438232e-01" nType="1"/>
          <Node pos="r" depth="2" NCoef="0" IVar="2" Cut="7.0736902952194214e-01" cType="0" res="-9.9000000000000000e+01" rms="0.0000000000000000e+00" purity="4.9982953071594238e-01" nType="0">
            <Node pos="l" depth="3" NCoef="0" IVar="-1" Cut="0.0000000000000000e+00" cType="1" res="-9.9000000000000000e+01" rms="0.0000000000000000e+00" purity="5.0778937339782715e-01" nType="1"/>
            <Node pos="r" depth="3" NCoef="0" IVar="5" Cut="8.2507121562957764e-01" cType="1" res="-9.9000000000000000e+01" rms="0.0000000000000000e+00" purity="4.9432057142257690e-01" nType="0">
              <Node pos="l" depth="4" NCoef="0" IVar="-1" Cut="0.0000000000000000e+00" cType="1" res="-9.9000000000000000e+01" rms="0.0000000000000000e+00" purity="5.0170499086380005e-01" nType="1"/>
              <Node pos="r" depth="4" NCoef="0" IVar="-1" Cut="0.0000000000000000e+00" cType="1" res="-9.9000000000000000e+01" rms="0.0000000000000000e+00" purity="4.7835913300514221e-01" nType="-1"/>
            </Node>
          </Node>
        </Node>
        <Node pos="r" depth="1" NCoef="0" IVar="-1" Cut="6.7998850718140602e-03" cType="0" res="-9.9000000000000000e+01" rms="0.0000000000000000e+00" purity="8.9650690555572510e-02" nType="-1"/>
      </Node>
    </BinaryTree>
    <BinaryTree type="DecisionTree" boostWeight="8.5815616464605809e-02" itree="38">
      <Node pos="s" depth="0" NCoef="0" IVar="5" Cut="4.7619048506021500e-02" cType="0" res="-9.9000000000000000e+01" rms="0.0000000000000000e+00" purity="4.7741192579269409e-01" nType="0">
        <Node pos="l" depth="1" NCoef="0" IVar="5" Cut="9.5464915037155151e-01" cType="0" res="-9.9000000000000000e+01" rms="0.0000000000000000e+00" purity="6.1458915472030640e-01" nType="0">
          <Node pos="l" depth="2" NCoef="0" IVar="-1" Cut="9.8920226097106934e-01" cType="0" res="-9.9000000000000000e+01" rms="0.0000000000000000e+00" purity="8.2788908481597900e-01" nType="1"/>
          <Node pos="r" depth="2" NCoef="0" IVar="5" Cut="5.2273499965667725e-01" cType="0" res="-9.9000000000000000e+01" rms="0.0000000000000000e+00" purity="4.9260330200195312e-01" nType="0">
            <Node pos="l" depth="3" NCoef="0" IVar="3" Cut="7.6867753267288208e-01" cType="0" res="-9.9000000000000000e+01" rms="0.0000000000000000e+00" purity="5.0252974033355713e-01" nType="0">
              <Node pos="l" depth="4" NCoef="0" IVar="-1" Cut="0.0000000000000000e+00" cType="1" res="-9.9000000000000000e+01" rms="0.0000000000000000e+00" purity="5.1338827610015869e-01" nType="1"/>
              <Node pos="r" depth="4" NCoef="0" IVar="-1" Cut="0.0000000000000000e+00" cType="1" res="-9.9000000000000000e+01" rms="0.0000000000000000e+00" purity="4.9148061871528625e-01" nType="-1"/>
            </Node>
            <Node pos="r" depth="3" NCoef="0" IVar="-1" Cut="0.0000000000000000e+00" cType="1" res="-9.9000000000000000e+01" rms="0.0000000000000000e+00" purity="4.8022514581680298e-01" nType="-1"/>
          </Node>
        </Node>
        <Node pos="r" depth="1" NCoef="0" IVar="-1" Cut="6.8025295622646809e-03" cType="0" res="-9.9000000000000000e+01" rms="0.0000000000000000e+00" purity="9.0275645256042480e-02" nType="-1"/>
      </Node>
    </BinaryTree>
    <BinaryTree type="DecisionTree" boostWeight="8.2740698841188398e-02" itree="39">
      <Node pos="s" depth="0" NCoef="0" IVar="5" Cut="4.7619048506021500e-02" cType="0" res="-9.9000000000000000e+01" rms="0.0000000000000000e+00" purity="4.7930833697319031e-01" nType="0">
        <Node pos="l" depth="1" NCoef="0" IVar="5" Cut="9.5464855432510376e-01" cType="0" res="-9.9000000000000000e+01" rms="0.0000000000000000e+00" purity="6.1343163251876831e-01" nType="0">
          <Node pos="l" depth="2" NCoef="0" IVar="-1" Cut="9.9352169036865234e-01" cType="0" res="-9.9000000000000000e+01" rms="0.0000000000000000e+00" purity="8.1900745630264282e-01" nType="1"/>
          <Node pos="r" depth="2" NCoef="0" IVar="1" Cut="6.2375760078430176e-01" cType="0" res="-9.9000000000000000e+01" rms="0.0000000000000000e+00" purity="4.9800285696983337e-01" nType="0">
            <Node pos="l" depth="3" NCoef="0" IVar="-1" Cut="0.0000000000000000e+00" cType="1" res="-9.9000000000000000e+01" rms="0.0000000000000000e+00" purity="5.1212137937545776e-01" nType="1"/>
            <Node pos="r" depth="3" NCoef="0" IVar="3" Cut="7.5497847795486450e-01" cType="1" res="-9.9000000000000000e+01" rms="0.0000000000000000e+00" purity="4.9271416664123535e-01" nType="0">
              <Node pos="l" depth="4" NCoef="0" IVar="-1" Cut="0.0000000000000000e+00" cType="1" res="-9.9000000000000000e+01" rms="0.0000000000000000e+00" purity="5.0850331783294678e-01" nType="1"/>
              <Node pos="r" depth="4" NCoef="0" IVar="-1" Cut="0.0000000000000000e+00" cType="1" res="-9.9000000000000000e+01" rms="0.0000000000000000e+00" purity="4.8461252450942993e-01" nType="-1"/>
            </Node>
          </Node>
        </Node>
        <Node pos="r" depth="1" NCoef="0" IVar="-1" Cut="6.7999507300555706e-03" cType="0" res="-9.9000000000000000e+01" rms="0.0000000000000000e+00" purity="9.5686510205268860e-02" nType="-1"/>
      </Node>
    </BinaryTree>
    <BinaryTree type="DecisionTree" boostWeight="7.9142357671502475e-02" itree="40">
      <Node pos="s" depth="0" NCoef="0" IVar="5" Cut="4.7619048506021500e-02" cType="0" res="-9.9000000000000000e+01" rms="0.0000000000000000e+00" purity="4.7855594754219055e-01" nType="0">
        <Node pos="l" depth="1" NCoef="0" IVar="5" Cut="9.5464903116226196e-01" cType="0" res="-9.9000000000000000e+01" rms="0.0000000000000000e+00" purity="6.0882019996643066e-01" nType="0">
          <Node pos="l" depth="2" NCoef="0" IVar="-1" Cut="9.8920226097106934e-01" cType="0" res="-9.9000000000000000e+01" rms="0.0000000000000000e+00" purity="8.0635821819305420e-01" nType="1"/>
          <Node pos="r" depth="2" NCoef="0" IVar="5" Cut="3.9315924048423767e-01" cType="1" res="-9.9000000000000000e+01" rms="0.0000000000000000e+00" purity="5.0059247016906738e-01" nType="0">
            <Node pos="l" depth="3" NCoef="0" IVar="-1" Cut="0.0000000000000000e+00" cType="1" res="-9.9000000000000000e+01" rms="0.0000000000000000e+00" purity="5.1300954818725586e-01" nType="1"/>
            <Node pos="r" depth="3" NCoef="0" IVar="-1" Cut="6.3353228569030762e-01" cType="0" res="-9.9000000000000000e+01" rms="0.0000000000000000e+00" purity="4.9388110637664795e-01" nType="-1"/>
          </Node>
        </Node>
        <Node pos="r" depth="1" NCoef="0" IVar="-1" Cut="6.8016611039638519e-03" cType="0" res="-9.9000000000000000e+01" rms="0.0000000000000000e+00" purity="9.1355182230472565e-02" nType="-1"/>
      </Node>
    </BinaryTree>
    <BinaryTree type="DecisionTree" boostWeight="7.9151236915091072e-02" itree="41">
      <Node pos="s" depth="0" NCoef="0" IVar="5" Cut="4.7619048506021500e-02" cType="0" res="-9.9000000000000000e+01" rms="0.0000000000000000e+00" purity="4.8253399133682251e-01" nType="0">
        <Node pos="l" depth="1" NCoef="0" IVar="5" Cut="9.5464915037155151e-01" cType="0" res="-9.9000000000000000e+01" rms="0.0000000000000000e+00" purity="6.1192387342453003e-01" nType="0">
          <Node pos="l" depth="2" NCoef="0" IVar="-1" Cut="9.8920273780822754e-01" cType="0" res="-9.9000000000000000e+01" rms="0.0000000000000000e+00" purity="8.1385046243667603e-01" nType="1"/>
          <Node pos="r" depth="2" NCoef="0" IVar="2" Cut="7.0308089256286621e-01" cType="1" res="-9.9000000000000000e+01" rms="0.0000000000000000e+00" purity="5.0318187475204468e-01" nType="0">
            <Node pos="l" depth="3" NCoef="0" IVar="-1" Cut="8.2507294416427612e-01" cType="0" res="-9.9000000000000000e+01" rms="0.0000000000000000e+00" purity="5.1166105270385742e-01" nType="1"/>
            <Node pos="r" depth="3" NCoef="0" IVar="-1" Cut="0.0000000000000000e+00" cType="1" res="-9.9000000000000000e+01" rms="0.0000000000000000e+00" purity="4.9220407009124756e-01" nType="-1"/>
          </Node>
        </Node>
        <Node pos="r" depth="1" NCoef="0" IVar="-1" Cut="6.8014669232070446e-03" cType="0" res="-9.9000000000000000e+01" rms="0.0000000000000000e+00" purity="9.8932430148124695e-02" nType="-1"/>
      </Node>
    </BinaryTree>
    <BinaryTree type="DecisionTree" boostWeight="7.6378993075456716e-02" itree="42">
      <Node pos="s" depth="0" NCoef="0" IVar="5" Cut="4.7619048506021500e-02" cType="0" res="-9.9000000000000000e+01" rms="0.0000000000000000e+00" purity="4.8047935962677002e-01" nType="0">
        <Node pos="l" depth="1" NCoef="0" IVar="5" Cut="9.5464855432510376e-01" cType="0" res="-9.9000000000000000e+01" rms="0.0000000000000000e+00" purity="6.0494089126586914e-01" nType="0">
          <Node pos="l" depth="2" NCoef="0" IVar="-1" Cut="9.8920226097106934e-01" cType="0" res="-9.9000000000000000e+01" rms="0.0000000000000000e+00" purity="7.9620188474655151e-01" nType="1"/>
          <Node pos="r" depth="2" NCoef="0" IVar="1" Cut="6.2465375661849976e-01" cType="1" res="-9.9000000000000000e+01" rms="0.0000000000000000e+00" purity="5.0227957963943481e-01" nType="0">
            <Node pos="l" depth="3" NCoef="0" IVar="0" Cut="1.9006434631347656e+02" cType="1" res="-9.9000000000000000e+01" rms="0.0000000000000000e+00" purity="5.0751155614852905e-01" nType="0">
              <Node pos="l" depth="4" NCoef="0" IVar="-1" Cut="0.0000000000000000e+00" cType="1" res="-9.9000000000000000e+01" rms="0.0000000000000000e+00" purity="5.1950502395629883e-01" nType="1"/>
              <Node pos="r" depth="4" NCoef="0" IVar="-1" Cut="0.0000000000000000e+00" cType="1" res="-9.9000000000000000e+01" rms="0.0000000000000000e+00" purity="4.9511775374412537e-01" nType="-1"/>
            </Node>
            <Node pos="r" depth="3" NCoef="0" IVar="-1" Cut="0.0000000000000000e+00" cType="1" res="-9.9000000000000000e+01" rms="0.0000000000000000e+00" purity="4.8786345124244690e-01" nType="-1"/>
          </Node>
        </Node>
        <Node pos="r" depth="1" NCoef="0" IVar="-1" Cut="6.8025295622646809e-03" cType="0" res="-9.9000000000000000e+01" rms="0.0000000000000000e+00" purity="1.0366561263799667e-01" nType="-1"/>
      </Node>
    </BinaryTree>
    <BinaryTree type="DecisionTree" boostWeight="7.4097392321688813e-02" itree="43">
      <Node pos="s" depth="0" NCoef="0" IVar="5" Cut="4.7619048506021500e-02" cType="0" res="-9.9000000000000000e+01" rms="0.0000000000000000e+00" purity="4.8022934794425964e-01" nType="0">
        <Node pos="l" depth="1" NCoef="0" IVar="5" Cut="9.5464855432510376e-01" cType="0" res="-9.9000000000000000e+01" rms="0.0000000000000000e+00" purity="6.0102081298828125e-01" nType="0">
          <Node pos="l" depth="2" NCoef="0" IVar="-1" Cut="9.8704284429550171e-01" cType="0" res="-9.9000000000000000e+01" rms="0.0000000000000000e+00" purity="7.9138320684432983e-01" nType="1"/>
          <Node pos="r" depth="2" NCoef="0" IVar="2" Cut="7.1047788858413696e-01" cType="0" res="-9.9000000000000000e+01" rms="0.0000000000000000e+00" purity="4.9935862421989441e-01" nType="0">
            <Node pos="l" depth="3" NCoef="0" IVar="-1" Cut="0.0000000000000000e+00" cType="1" res="-9.9000000000000000e+01" rms="0.0000000000000000e+00" purity="5.1300472021102905e-01" nType="1"/>
            <Node pos="r" depth="3" NCoef="0" IVar="0" Cut="1.9385952758789062e+02" cType="0" res="-9.9000000000000000e+01" rms="0.0000000000000000e+00" purity="4.9007308483123779e-01" nType="0">
              <Node pos="l" depth="4" NCoef="0" IVar="-1" Cut="0.0000000000000000e+00" cType="1" res="-9.9000000000000000e+01" rms="0.0000000000000000e+00" purity="5.0036787986755371e-01" nType="1"/>
              <Node pos="r" depth="4" NCoef="0" IVar="-1" Cut="0.0000000000000000e+00" cType="1" res="-9.9000000000000000e+01" rms="0.0000000000000000e+00" purity="4.7879657149314880e-01" nType="-1"/>
            </Node>
          </Node>
        </Node>
        <Node pos="r" depth="1" NCoef="0" IVar="-1" Cut="6.8025295622646809e-03" cType="0" res="-9.9000000000000000e+01" rms="0.0000000000000000e+00" purity="1.1768065392971039e-01" nType="-1"/>
      </Node>
    </BinaryTree>
    <BinaryTree type="DecisionTree" boostWeight="7.5528028623988525e-02" itree="44">
      <Node pos="s" depth="0" NCoef="0" IVar="5" Cut="4.7619048506021500e-02" cType="0" res="-9.9000000000000000e+01" rms="0.0000000000000000e+00" purity="4.7738957405090332e-01" nType="0">
        <Node pos="l" depth="1" NCoef="0" IVar="5" Cut="9.5464867353439331e-01" cType="0" res="-9.9000000000000000e+01" rms="0.0000000000000000e+00" purity="5.9715372323989868e-01" nType="0">
          <Node pos="l" depth="2" NCoef="0" IVar="-1" Cut="9.8704326152801514e-01" cType="0" res="-9.9000000000000000e+01" rms="0.0000000000000000e+00" purity="8.0029028654098511e-01" nType="1"/>
          <Node pos="r" depth="2" NCoef="0" IVar="5" Cut="3.9315471053123474e-01" cType="0" res="-9.9000000000000000e+01" rms="0.0000000000000000e+00" purity="4.9032104015350342e-01" nType="0">
            <Node pos="l" depth="3" NCoef="0" IVar="2" Cut="6.3158959150314331e-01" cType="0" res="-9.9000000000000000e+01" rms="0.0000000000000000e+00" purity="4.9928185343742371e-01" nType="0">
              <Node pos="l" depth="4" NCoef="0" IVar="-1" Cut="0.0000000000000000e+00" cType="1" res="-9.9000000000000000e+01" rms="0.0000000000000000e+00" purity="5.0598061084747314e-01" nType="1"/>
              <Node pos="r" depth="4" NCoef="0" IVar="-1" Cut="0.0000000000000000e+00" cType="1" res="-9.9000000000000000e+01" rms="0.0000000000000000e+00" purity="4.8748025298118591e-01" nType="-1"/>
            </Node>
            <Node pos="r" depth="3" NCoef="0" IVar="-1" Cut="0.0000000000000000e+00" cType="1" res="-9.9000000000000000e+01" rms="0.0000000000000000e+00" purity="4.7344043850898743e-01" nType="-1"/>
          </Node>
        </Node>
        <Node pos="r" depth="1" NCoef="0" IVar="-1" Cut="6.8018669262528419e-03" cType="0" res="-9.9000000000000000e+01" rms="0.0000000000000000e+00" purity="1.1789021641016006e-01" nType="-1"/>
      </Node>
    </BinaryTree>
    <BinaryTree type="DecisionTree" boostWeight="9.4612389239959252e-02" itree="45">
      <Node pos="s" depth="0" NCoef="0" IVar="5" Cut="4.7619048506021500e-02" cType="0" res="-9.9000000000000000e+01" rms="0.0000000000000000e+00" purity="4.7511321306228638e-01" nType="0">
        <Node pos="l" depth="1" NCoef="0" IVar="4" Cut="-9.0476191043853760e-01" cType="0" res="-9.9000000000000000e+01" rms="0.0000000000000000e+00" purity="5.9261071681976318e-01" nType="0">
          <Node pos="l" depth="2" NCoef="0" IVar="-1" Cut="6.2065291404724121e-01" cType="1" res="-9.9000000000000000e+01" rms="0.0000000000000000e+00" purity="8.8819199800491333e-01" nType="1"/>
          <Node pos="r" depth="2" NCoef="0" IVar="5" Cut="9.5464909076690674e-01" cType="0" res="-9.9000000000000000e+01" rms="0.0000000000000000e+00" purity="5.3286409378051758e-01" nType="0">
            <Node pos="l" depth="3" NCoef="0" IVar="5" Cut="9.9352145195007324e-01" cType="0" res="-9.9000000000000000e+01" rms="0.0000000000000000e+00" purity="7.3252248764038086e-01" nType="0">
              <Node pos="l" depth="4" NCoef="0" IVar="-1" Cut="0.0000000000000000e+00" cType="1" res="-9.9000000000000000e+01" rms="0.0000000000000000e+00" purity="9.1822725534439087e-01" nType="1"/>
              <Node pos="r" depth="4" NCoef="0" IVar="-1" Cut="0.0000000000000000e+00" cType="1" res="-9.9000000000000000e+01" rms="0.0000000000000000e+00" purity="4.9869763851165771e-01" nType="-1"/>
            </Node>
            <Node pos="r" depth="3" NCoef="0" IVar="-1" Cut="8.1854206323623657e-01" cType="0" res="-9.9000000000000000e+01" rms="0.0000000000000000e+00" purity="4.3474674224853516e-01" nType="-1"/>
          </Node>
        </Node>
        <Node pos="r" depth="1" NCoef="0" IVar="-1" Cut="6.8014049902558327e-03" cType="0" res="-9.9000000000000000e+01" rms="0.0000000000000000e+00" purity="1.0990089923143387e-01" nType="-1"/>
      </Node>
    </BinaryTree>
    <BinaryTree type="DecisionTree" boostWeight="7.1108545031109721e-02" itree="46">
      <Node pos="s" depth="0" NCoef="0" IVar="5" Cut="4.7619048506021500e-02" cType="0" res="-9.9000000000000000e+01" rms="0.0000000000000000e+00" purity="4.8676839470863342e-01" nType="0">
        <Node pos="l" depth="1" NCoef="0" IVar="-1" Cut="9.5464867353439331e-01" cType="0" res="-9.9000000000000000e+01" rms="0.0000000000000000e+00" purity="6.0383242368698120e-01" nType="1"/>
        <Node pos="r" depth="1" NCoef="0" IVar="-1" Cut="6.8025295622646809e-03" cType="0" res="-9.9000000000000000e+01" rms="0.0000000000000000e+00" purity="1.2010232359170914e-01" nType="-1"/>
      </Node>
    </BinaryTree>
    <BinaryTree type="DecisionTree" boostWeight="6.8277496561578735e-02" itree="47">
      <Node pos="s" depth="0" NCoef="0" IVar="5" Cut="4.7619048506021500e-02" cType="0" res="-9.9000000000000000e+01" rms="0.0000000000000000e+00" purity="4.7932589054107666e-01" nType="0">
        <Node pos="l" depth="1" NCoef="0" IVar="5" Cut="9.5464903116226196e-01" cType="0" res="-9.9000000000000000e+01" rms="0.0000000000000000e+00" purity="5.8976095914840698e-01" nType="0">
          <Node pos="l" depth="2" NCoef="0" IVar="-1" Cut="9.8920226097106934e-01" cType="0" res="-9.9000000000000000e+01" rms="0.0000000000000000e+00" purity="7.7283209562301636e-01" nType="1"/>
          <Node pos="r" depth="2" NCoef="0" IVar="5" Cut="2.2039480507373810e-01" cType="0" res="-9.9000000000000000e+01" rms="0.0000000000000000e+00" purity="4.9608680605888367e-01" nType="0">
            <Node pos="l" depth="3" NCoef="0" IVar="2" Cut="6.7510563135147095e-01" cType="1" res="-9.9000000000000000e+01" rms="0.0000000000000000e+00" purity="5.0060892105102539e-01" nType="0">
              <Node pos="l" depth="4" NCoef="0" IVar="-1" Cut="0.0000000000000000e+00" cType="1" res="-9.9000000000000000e+01" rms="0.0000000000000000e+00" purity="5.0927859544754028e-01" nType="1"/>
              <Node pos="r" depth="4" NCoef="0" IVar="-1" Cut="0.0000000000000000e+00" cType="1" res="-9.9000000000000000e+01" rms="0.0000000000000000e+00" purity="4.9229004979133606e-01" nType="-1"/>
            </Node>
            <Node pos="r" depth="3" NCoef="0" IVar="-1" Cut="0.0000000000000000e+00" cType="1" res="-9.9000000000000000e+01" rms="0.0000000000000000e+00" purity="4.7849148511886597e-01" nType="-1"/>
          </Node>
        </Node>
        <Node pos="r" depth="1" NCoef="0" IVar="-1" Cut="9.0691559016704559e-03" cType="0" res="-9.9000000000000000e+01" rms="0.0000000000000000e+00" purity="1.3285134732723236e-01" nType="-1"/>
      </Node>
    </BinaryTree>
    <BinaryTree type="DecisionTree" boostWeight="6.7119572055820073e-02" itree="48">
      <Node pos="s" depth="0" NCoef="0" IVar="5" Cut="4.7619048506021500e-02" cType="0" res="-9.9000000000000000e+01" rms="0.0000000000000000e+00" purity="4.8267459869384766e-01" nType="0">
        <Node pos="l" depth="1" NCoef="0" IVar="5" Cut="9.5464938879013062e-01" cType="0" res="-9.9000000000000000e+01" rms="0.0000000000000000e+00" purity="5.9241187572479248e-01" nType="0">
          <Node pos="l" depth="2" NCoef="0" IVar="-1" Cut="9.8704326152801514e-01" cType="0" res="-9.9000000000000000e+01" rms="0.0000000000000000e+00" purity="7.7805227041244507e-01" nType="1"/>
          <Node pos="r" depth="2" NCoef="0" IVar="2" Cut="6.6990798711776733e-01" cType="0" res="-9.9000000000000000e+01" rms="0.0000000000000000e+00" purity="5.0003618001937866e-01" nType="0">
            <Node pos="l" depth="3" NCoef="0" IVar="-1" Cut="1.8415112304687500e+02" cType="0" res="-9.9000000000000000e+01" rms="0.0000000000000000e+00" purity="5.0702637434005737e-01" nType="1"/>
            <Node pos="r" depth="3" NCoef="0" IVar="-1" Cut="5.5363303422927856e-01" cType="1" res="-9.9000000000000000e+01" rms="0.0000000000000000e+00" purity="4.9168986082077026e-01" nType="-1"/>
          </Node>
        </Node>
        <Node pos="r" depth="1" NCoef="0" IVar="-1" Cut="9.0691559016704559e-03" cType="0" res="-9.9000000000000000e+01" rms="0.0000000000000000e+00" purity="1.3381372392177582e-01" nType="-1"/>
      </Node>
    </BinaryTree>
    <BinaryTree type="DecisionTree" boostWeight="8.9608767832191363e-02" itree="49">
      <Node pos="s" depth="0" NCoef="0" IVar="5" Cut="4.7619048506021500e-02" cType="0" res="-9.9000000000000000e+01" rms="0.0000000000000000e+00" purity="4.8266518115997314e-01" nType="0">
        <Node pos="l" depth="1" NCoef="0" IVar="4" Cut="-9.0476191043853760e-01" cType="0" res="-9.9000000000000000e+01" rms="0.0000000000000000e+00" purity="5.9021705389022827e-01" nType="0">
          <Node pos="l" depth="2" NCoef="0" IVar="-1" Cut="6.0919833183288574e-01" cType="1" res="-9.9000000000000000e+01" rms="0.0000000000000000e+00" purity="8.8174289464950562e-01" nType="1"/>
          <Node pos="r" depth="2" NCoef="0" IVar="5" Cut="9.5464855432510376e-01" cType="0" res="-9.9000000000000000e+01" rms="0.0000000000000000e+00" purity="5.3193897008895874e-01" nType="0">
            <Node pos="l" depth="3" NCoef="0" IVar="5" Cut="9.8920279741287231e-01" cType="0" res="-9.9000000000000000e+01" rms="0.0000000000000000e+00" purity="7.1714556217193604e-01" nType="0">
              <Node pos="l" depth="4" NCoef="0" IVar="-1" Cut="0.0000000000000000e+00" cType="1" res="-9.9000000000000000e+01" rms="0.0000000000000000e+00" purity="8.6980319023132324e-01" nType="1"/>
              <Node pos="r" depth="4" NCoef="0" IVar="-1" Cut="0.0000000000000000e+00" cType="1" res="-9.9000000000000000e+01" rms="0.0000000000000000e+00" purity="4.5383945107460022e-01" nType="-1"/>
            </Node>
            <Node pos="r" depth="3" NCoef="0" IVar="-1" Cut="8.2123965024948120e-01" cType="0" res="-9.9000000000000000e+01" rms="0.0000000000000000e+00" purity="4.4329124689102173e-01" nType="-1"/>
          </Node>
        </Node>
        <Node pos="r" depth="1" NCoef="0" IVar="-1" Cut="6.8025295622646809e-03" cType="0" res="-9.9000000000000000e+01" rms="0.0000000000000000e+00" purity="1.4097225666046143e-01" nType="-1"/>
      </Node>
    </BinaryTree>
    <BinaryTree type="DecisionTree" boostWeight="8.3853632932278044e-02" itree="50">
      <Node pos="s" depth="0" NCoef="0" IVar="5" Cut="4.7619048506021500e-02" cType="0" res="-9.9000000000000000e+01" rms="0.0000000000000000e+00" purity="4.8245546221733093e-01" nType="0">
        <Node pos="l" depth="1" NCoef="0" IVar="4" Cut="-9.0476191043853760e-01" cType="0" res="-9.9000000000000000e+01" rms="0.0000000000000000e+00" purity="5.8987385034561157e-01" nType="0">
          <Node pos="l" depth="2" NCoef="0" IVar="-1" Cut="1.8954086303710938e+02" cType="1" res="-9.9000000000000000e+01" rms="0.0000000000000000e+00" purity="8.6966878175735474e-01" nType="1"/>
          <Node pos="r" depth="2" NCoef="0" IVar="5" Cut="9.5464855432510376e-01" cType="0" res="-9.9000000000000000e+01" rms="0.0000000000000000e+00" purity="5.3542149066925049e-01" nType="0">
            <Node pos="l" depth="3" NCoef="0" IVar="-1" Cut="9.9352240562438965e-01" cType="0" res="-9.9000000000000000e+01" rms="0.0000000000000000e+00" purity="7.1397709846496582e-01" nType="1"/>
            <Node pos="r" depth="3" NCoef="0" IVar="-1" Cut="8.2506757974624634e-01" cType="0" res="-9.9000000000000000e+01" rms="0.0000000000000000e+00" purity="4.4964513182640076e-01" nType="-1"/>
          </Node>
        </Node>
        <Node pos="r" depth="1" NCoef="0" IVar="-1" Cut="6.8014669232070446e-03" cType="0" res="-9.9000000000000000e+01" rms="0.0000000000000000e+00" purity="1.3651375472545624e-01" nType="-1"/>
      </Node>
    </BinaryTree>
    <BinaryTree type="DecisionTree" boostWeight="8.0803268003364667e-02" itree="51">
      <Node pos="s" depth="0" NCoef="0" IVar="5" Cut="4.7619048506021500e-02" cType="0" res="-9.9000000000000000e+01" rms="0.0000000000000000e+00" purity="4.8484006524085999e-01" nType="0">
        <Node pos="l" depth="1" NCoef="0" IVar="4" Cut="-9.0476191043853760e-01" cType="0" res="-9.9000000000000000e+01" rms="0.0000000000000000e+00" purity="5.8873265981674194e-01" nType="0">
          <Node pos="l" depth="2" NCoef="0" IVar="-1" Cut="6.2316167354583740e-01" cType="1" res="-9.9000000000000000e+01" rms="0.0000000000000000e+00" purity="8.7279534339904785e-01" nType="1"/>
          <Node pos="r" depth="2" NCoef="0" IVar="5" Cut="9.5464867353439331e-01" cType="0" res="-9.9000000000000000e+01" rms="0.0000000000000000e+00" purity="5.3441005945205688e-01" nType="0">
            <Node pos="l" depth="3" NCoef="0" IVar="5" Cut="9.9352169036865234e-01" cType="0" res="-9.9000000000000000e+01" rms="0.0000000000000000e+00" purity="7.0091336965560913e-01" nType="0">
              <Node pos="l" depth="4" NCoef="0" IVar="-1" Cut="0.0000000000000000e+00" cType="1" res="-9.9000000000000000e+01" rms="0.0000000000000000e+00" purity="8.8368201255798340e-01" nType="1"/>
              <Node pos="r" depth="4" NCoef="0" IVar="-1" Cut="0.0000000000000000e+00" cType="1" res="-9.9000000000000000e+01" rms="0.0000000000000000e+00" purity="4.8727115988731384e-01" nType="-1"/>
            </Node>
            <Node pos="r" depth="3" NCoef="0" IVar="-1" Cut="1.8897987365722656e+02" cType="1" res="-9.9000000000000000e+01" rms="0.0000000000000000e+00" purity="4.5672476291656494e-01" nType="-1"/>
          </Node>
        </Node>
        <Node pos="r" depth="1" NCoef="0" IVar="-1" Cut="6.8016611039638519e-03" cType="0" res="-9.9000000000000000e+01" rms="0.0000000000000000e+00" purity="1.4274482429027557e-01" nType="-1"/>
      </Node>
    </BinaryTree>
    <BinaryTree type="DecisionTree" boostWeight="7.5494321763953251e-02" itree="52">
      <Node pos="s" depth="0" NCoef="0" IVar="5" Cut="4.7619048506021500e-02" cType="0" res="-9.9000000000000000e+01" rms="0.0000000000000000e+00" purity="4.9141716957092285e-01" nType="0">
        <Node pos="l" depth="1" NCoef="0" IVar="4" Cut="-9.0476191043853760e-01" cType="0" res="-9.9000000000000000e+01" rms="0.0000000000000000e+00" purity="5.9378379583358765e-01" nType="0">
          <Node pos="l" depth="2" NCoef="0" IVar="-1" Cut="6.1619961261749268e-01" cType="1" res="-9.9000000000000000e+01" rms="0.0000000000000000e+00" purity="8.7420368194580078e-01" nType="1"/>
          <Node pos="r" depth="2" NCoef="0" IVar="5" Cut="9.5464855432510376e-01" cType="0" res="-9.9000000000000000e+01" rms="0.0000000000000000e+00" purity="5.4051929712295532e-01" nType="0">
            <Node pos="l" depth="3" NCoef="0" IVar="-1" Cut="9.9568092823028564e-01" cType="0" res="-9.9000000000000000e+01" rms="0.0000000000000000e+00" purity="6.9068884849548340e-01" nType="1"/>
            <Node pos="r" depth="3" NCoef="0" IVar="-1" Cut="7.3868584632873535e-01" cType="0" res="-9.9000000000000000e+01" rms="0.0000000000000000e+00" purity="4.6806058287620544e-01" nType="-1"/>
          </Node>
        </Node>
        <Node pos="r" depth="1" NCoef="0" IVar="-1" Cut="6.8025295622646809e-03" cType="0" res="-9.9000000000000000e+01" rms="0.0000000000000000e+00" purity="1.5415178239345551e-01" nType="-1"/>
      </Node>
    </BinaryTree>
    <BinaryTree type="DecisionTree" boostWeight="7.9037429622433278e-02" itree="53">
      <Node pos="s" depth="0" NCoef="0" IVar="5" Cut="4.7619048506021500e-02" cType="0" res="-9.9000000000000000e+01" rms="0.0000000000000000e+00" purity="4.9737572669982910e-01" nType="0">
        <Node pos="l" depth="1" NCoef="0" IVar="4" Cut="-9.0476191043853760e-01" cType="0" res="-9.9000000000000000e+01" rms="0.0000000000000000e+00" purity="5.9949648380279541e-01" nType="0">
          <Node pos="l" depth="2" NCoef="0" IVar="-1" Cut="6.2271171808242798e-01" cType="1" res="-9.9000000000000000e+01" rms="0.0000000000000000e+00" purity="8.6728101968765259e-01" nType="1"/>
          <Node pos="r" depth="2" NCoef="0" IVar="5" Cut="9.5464855432510376e-01" cType="0" res="-9.9000000000000000e+01" rms="0.0000000000000000e+00" purity="5.4815346002578735e-01" nType="0">
            <Node pos="l" depth="3" NCoef="0" IVar="5" Cut="9.8704481124877930e-01" cType="0" res="-9.9000000000000000e+01" rms="0.0000000000000000e+00" purity="7.1079128980636597e-01" nType="0">
              <Node pos="l" depth="4" NCoef="0" IVar="-1" Cut="0.0000000000000000e+00" cType="1" res="-9.9000000000000000e+01" rms="0.0000000000000000e+00" purity="8.4844988584518433e-01" nType="1"/>
              <Node pos="r" depth="4" NCoef="0" IVar="-1" Cut="0.0000000000000000e+00" cType="1" res="-9.9000000000000000e+01" rms="0.0000000000000000e+00" purity="4.4475305080413818e-01" nType="-1"/>
            </Node>
            <Node pos="r" depth="3" NCoef="0" IVar="-1" Cut="8.0575245618820190e-01" cType="0" res="-9.9000000000000000e+01" rms="0.0000000000000000e+00" purity="4.7427815198898315e-01" nType="-1"/>
          </Node>
        </Node>
        <Node pos="r" depth="1" NCoef="0" IVar="5" Cut="9.0700397267937660e-03" cType="0" res="-9.9000000000000000e+01" rms="0.0000000000000000e+00" purity="1.5865185856819153e-01" nType="0">
          <Node pos="l" depth="2" NCoef="0" IVar="-1" Cut="0.0000000000000000e+00" cType="1" res="-9.9000000000000000e+01" rms="0.0000000000000000e+00" purity="5.1780033111572266e-01" nType="1"/>
          <Node pos="r" depth="2" NCoef="0" IVar="-1" Cut="4.3188533163629472e-04" cType="0" res="-9.9000000000000000e+01" rms="0.0000000000000000e+00" purity="4.4011931866407394e-02" nType="-1"/>
        </Node>
      </Node>
    </BinaryTree>
    <BinaryTree type="DecisionTree" boostWeight="7.0982520844245889e-02" itree="54">
      <Node pos="s" depth="0" NCoef="0" IVar="5" Cut="4.7619048506021500e-02" cType="0" res="-9.9000000000000000e+01" rms="0.0000000000000000e+00" purity="4.9847173690795898e-01" nType="0">
        <Node pos="l" depth="1" NCoef="0" IVar="4" Cut="-9.0476191043853760e-01" cType="0" res="-9.9000000000000000e+01" rms="0.0000000000000000e+00" purity="6.0274553298950195e-01" nType="0">
          <Node pos="l" depth="2" NCoef="0" IVar="-1" Cut="6.2271171808242798e-01" cType="1" res="-9.9000000000000000e+01" rms="0.0000000000000000e+00" purity="8.5640221834182739e-01" nType="1"/>
          <Node pos="r" depth="2" NCoef="0" IVar="5" Cut="9.5464867353439331e-01" cType="0" res="-9.9000000000000000e+01" rms="0.0000000000000000e+00" purity="5.5486994981765747e-01" nType="0">
            <Node pos="l" depth="3" NCoef="0" IVar="-1" Cut="9.9352163076400757e-01" cType="0" res="-9.9000000000000000e+01" rms="0.0000000000000000e+00" purity="6.9999730587005615e-01" nType="1"/>
            <Node pos="r" depth="3" NCoef="0" IVar="-1" Cut="2.1601206970214844e+02" cType="1" res="-9.9000000000000000e+01" rms="0.0000000000000000e+00" purity="4.8841354250907898e-01" nType="-1"/>
          </Node>
        </Node>
        <Node pos="r" depth="1" NCoef="0" IVar="-1" Cut="6.8018669262528419e-03" cType="0" res="-9.9000000000000000e+01" rms="0.0000000000000000e+00" purity="1.4656668901443481e-01" nType="-1"/>
      </Node>
    </BinaryTree>
    <BinaryTree type="DecisionTree" boostWeight="6.6974916247212954e-02" itree="55">
      <Node pos="s" depth="0" NCoef="0" IVar="5" Cut="4.7619048506021500e-02" cType="0" res="-9.9000000000000000e+01" rms="0.0000000000000000e+00" purity="5.0371849536895752e-01" nType="0">
        <Node pos="l" depth="1" NCoef="0" IVar="4" Cut="-9.0476191043853760e-01" cType="0" res="-9.9000000000000000e+01" rms="0.0000000000000000e+00" purity="6.0314202308654785e-01" nType="0">
          <Node pos="l" depth="2" NCoef="0" IVar="-1" Cut="5.5419391393661499e-01" cType="1" res="-9.9000000000000000e+01" rms="0.0000000000000000e+00" purity="8.5477310419082642e-01" nType="1"/>
          <Node pos="r" depth="2" NCoef="0" IVar="5" Cut="9.5464855432510376e-01" cType="0" res="-9.9000000000000000e+01" rms="0.0000000000000000e+00" purity="5.5619716644287109e-01" nType="0">
            <Node pos="l" depth="3" NCoef="0" IVar="-1" Cut="9.9568110704421997e-01" cType="0" res="-9.9000000000000000e+01" rms="0.0000000000000000e+00" purity="6.8326658010482788e-01" nType="1"/>
            <Node pos="r" depth="3" NCoef="0" IVar="1" Cut="5.2728581428527832e-01" cType="1" res="-9.9000000000000000e+01" rms="0.0000000000000000e+00" purity="4.9868994951248169e-01" nType="0">
              <Node pos="l" depth="4" NCoef="0" IVar="-1" Cut="0.0000000000000000e+00" cType="1" res="-9.9000000000000000e+01" rms="0.0000000000000000e+00" purity="5.0847816467285156e-01" nType="1"/>
              <Node pos="r" depth="4" NCoef="0" IVar="-1" Cut="0.0000000000000000e+00" cType="1" res="-9.9000000000000000e+01" rms="0.0000000000000000e+00" purity="4.9015828967094421e-01" nType="-1"/>
            </Node>
          </Node>
        </Node>
        <Node pos="r" depth="1" NCoef="0" IVar="5" Cut="6.8025295622646809e-03" cType="0" res="-9.9000000000000000e+01" rms="0.0000000000000000e+00" purity="1.6252423822879791e-01" nType="0">
          <Node pos="l" depth="2" NCoef="0" IVar="-1" Cut="0.0000000000000000e+00" cType="1" res="-9.9000000000000000e+01" rms="0.0000000000000000e+00" purity="5.0558674335479736e-01" nType="1"/>
          <Node pos="r" depth="2" NCoef="0" IVar="-1" Cut="3.2386617385782301e-04" cType="0" res="-9.9000000000000000e+01" rms="0.0000000000000000e+00" purity="2.9711391776800156e-02" nType="-1"/>
        </Node>
      </Node>
    </BinaryTree>
    <BinaryTree type="DecisionTree" boostWeight="7.0519923938884996e-02" itree="56">
      <Node pos="s" depth="0" NCoef="0" IVar="5" Cut="4.7619048506021500e-02" cType="0" res="-9.9000000000000000e+01" rms="0.0000000000000000e+00" purity="5.0052106380462646e-01" nType="0">
        <Node pos="l" depth="1" NCoef="0" IVar="4" Cut="-9.0476191043853760e-01" cType="0" res="-9.9000000000000000e+01" rms="0.0000000000000000e+00" purity="6.0051125288009644e-01" nType="0">
          <Node pos="l" depth="2" NCoef="0" IVar="-1" Cut="1.9289871215820312e+02" cType="1" res="-9.9000000000000000e+01" rms="0.0000000000000000e+00" purity="8.5164433717727661e-01" nType="1"/>
          <Node pos="r" depth="2" NCoef="0" IVar="5" Cut="9.5464903116226196e-01" cType="0" res="-9.9000000000000000e+01" rms="0.0000000000000000e+00" purity="5.5435699224472046e-01" nType="0">
            <Node pos="l" depth="3" NCoef="0" IVar="5" Cut="9.8920238018035889e-01" cType="0" res="-9.9000000000000000e+01" rms="0.0000000000000000e+00" purity="6.7999404668807983e-01" nType="0">
              <Node pos="l" depth="4" NCoef="0" IVar="-1" Cut="0.0000000000000000e+00" cType="1" res="-9.9000000000000000e+01" rms="0.0000000000000000e+00" purity="8.3622270822525024e-01" nType="1"/>
              <Node pos="r" depth="4" NCoef="0" IVar="-1" Cut="0.0000000000000000e+00" cType="1" res="-9.9000000000000000e+01" rms="0.0000000000000000e+00" purity="4.3592295050621033e-01" nType="-1"/>
            </Node>
            <Node pos="r" depth="3" NCoef="0" IVar="5" Cut="6.0911518335342407e-01" cType="0" res="-9.9000000000000000e+01" rms="0.0000000000000000e+00" purity="4.9690073728561401e-01" nType="0">
              <Node pos="l" depth="4" NCoef="0" IVar="-1" Cut="0.0000000000000000e+00" cType="1" res="-9.9000000000000000e+01" rms="0.0000000000000000e+00" purity="5.0335532426834106e-01" nType="1"/>
              <Node pos="r" depth="4" NCoef="0" IVar="-1" Cut="0.0000000000000000e+00" cType="1" res="-9.9000000000000000e+01" rms="0.0000000000000000e+00" purity="4.9073418974876404e-01" nType="-1"/>
            </Node>
          </Node>
        </Node>
        <Node pos="r" depth="1" NCoef="0" IVar="-1" Cut="6.8025295622646809e-03" cType="0" res="-9.9000000000000000e+01" rms="0.0000000000000000e+00" purity="1.6024886071681976e-01" nType="-1"/>
      </Node>
    </BinaryTree>
    <BinaryTree type="DecisionTree" boostWeight="6.6925818119109845e-02" itree="57">
      <Node pos="s" depth="0" NCoef="0" IVar="5" Cut="4.7619048506021500e-02" cType="0" res="-9.9000000000000000e+01" rms="0.0000000000000000e+00" purity="5.0290095806121826e-01" nType="0">
        <Node pos="l" depth="1" NCoef="0" IVar="4" Cut="-9.0476191043853760e-01" cType="0" res="-9.9000000000000000e+01" rms="0.0000000000000000e+00" purity="6.0218769311904907e-01" nType="0">
          <Node pos="l" depth="2" NCoef="0" IVar="-1" Cut="6.1110603809356689e-01" cType="1" res="-9.9000000000000000e+01" rms="0.0000000000000000e+00" purity="8.4841465950012207e-01" nType="1"/>
          <Node pos="r" depth="2" NCoef="0" IVar="5" Cut="9.5464867353439331e-01" cType="0" res="-9.9000000000000000e+01" rms="0.0000000000000000e+00" purity="5.5705422163009644e-01" nType="0">
            <Node pos="l" depth="3" NCoef="0" IVar="5" Cut="9.9352240562438965e-01" cType="0" res="-9.9000000000000000e+01" rms="0.0000000000000000e+00" purity="6.8815958499908447e-01" nType="0">
              <Node pos="l" depth="4" NCoef="0" IVar="-1" Cut="0.0000000000000000e+00" cType="1" res="-9.9000000000000000e+01" rms="0.0000000000000000e+00" purity="8.7151497602462769e-01" nType="1"/>
              <Node pos="r" depth="4" NCoef="0" IVar="-1" Cut="0.0000000000000000e+00" cType="1" res="-9.9000000000000000e+01" rms="0.0000000000000000e+00" purity="4.9174311757087708e-01" nType="-1"/>
            </Node>
            <Node pos="r" depth="3" NCoef="0" IVar="0" Cut="2.1323570251464844e+02" cType="1" res="-9.9000000000000000e+01" rms="0.0000000000000000e+00" purity="4.9834769964218140e-01" nType="0">
              <Node pos="l" depth="4" NCoef="0" IVar="-1" Cut="0.0000000000000000e+00" cType="1" res="-9.9000000000000000e+01" rms="0.0000000000000000e+00" purity="5.0464576482772827e-01" nType="1"/>
              <Node pos="r" depth="4" NCoef="0" IVar="-1" Cut="0.0000000000000000e+00" cType="1" res="-9.9000000000000000e+01" rms="0.0000000000000000e+00" purity="4.8582828044891357e-01" nType="-1"/>
            </Node>
          </Node>
        </Node>
        <Node pos="r" depth="1" NCoef="0" IVar="-1" Cut="6.8025295622646809e-03" cType="0" res="-9.9000000000000000e+01" rms="0.0000000000000000e+00" purity="1.6146241128444672e-01" nType="-1"/>
      </Node>
    </BinaryTree>
    <BinaryTree type="DecisionTree" boostWeight="6.5601439117635663e-02" itree="58">
      <Node pos="s" depth="0" NCoef="0" IVar="5" Cut="4.7619048506021500e-02" cType="0" res="-9.9000000000000000e+01" rms="0.0000000000000000e+00" purity="5.0467741489410400e-01" nType="0">
        <Node pos="l" depth="1" NCoef="0" IVar="4" Cut="-9.0476191043853760e-01" cType="0" res="-9.9000000000000000e+01" rms="0.0000000000000000e+00" purity="5.9830790758132935e-01" nType="0">
